tree
version=v4
num_class=3
num_tree_per_iteration=3
label_index=0
max_feature_idx=22
objective=multiclass num_class:3
feature_names=time_remaining frames_remaining has_defender_tracking separation second_defender_dist closing_speed ball_to_receiver ball_to_catch_point ball_x ball_y ball_z receiver_x receiver_y receiver_speed receiver_to_catch_point receiver_alignment defender_speed defender_to_catch_point defender_alignment receiver_defender_speed_diff receiver_will_arrive_first defender_can_arrive projected_separation_at_catch
feature_infos=[0:5.4000000000000004] [0:54] [0:1] [0.010000000000005116:25.830048393295741] [0.59548299723837339:22.468546904506304] [-16.086378943597399:13.367514458799938] [1.7794652674778581e-06:54.415094021044425] [0:65.407286838878491] [-5.2600002288818395:125.84999847412099] [-3.9100000858306885:57.180000305175803] [1.5999999999999943:42.28743636363636] [0.02:120.83] [0.33000000000000002:53.719999999999999] [0:14.144963768069523] [1.7794652735707119e-06:33.396826127657697] [-0.99999999999999489:0.99999999999999967] [0:28.924902765610128] [0.0099972535588938628:37.635385964174183] [-1:0.99999999999999989] [-22.917407447259876:9.4834189597468601] [0:1] [0:1] [0.0099972535588938628:36.572079778587359]
tree_sizes=3399 3443 3337 3465 3487 3384 3462 3485 3387 3456 3508 3404 3484 3508 3436 3470 3486 3397 3475 3489 3426 3478 3515 3422 3499 3511 3436 3472 3490 3429 3495 3485 3414 3495 3483 3442 3476 3516 3405 3494 3506 3404 3471 3511 3416 3473 3497 3445 3463 3507 3446 3488 3498 3455 3487 3512 3449 3490 3505 3443 3511 3513 3452 3502 3508 3456 3492 3505 3442 3505 3518 3409 3490 3500 3418 3494 3497 3424 3516 3497 3418 3488 3505 3450 3499 3515 3404 3492 3512 3412 3501 3529 3425 3504 3528 3442 3508 3525 3430 3492 3516 3458 3491 3519 3428 3484 3515 3451 3518 3482 3423 3499 3517 3442 3503 3513 3412 3493 3525 3418 3506 3504 3456 3491 3527 3428 3502 3521 3425 3497 3521 3426 3500 3520 3445 3520 3496 3431 3490 3506 3444 3505 3518 3439 3499 3522 3446 3497 3529 3444 3500 3529 3454 3488 3540 3433 3488 3522 3456 3510 3527 3417 3500 3520 3425 3522 3511 3443 3529 3526 3442 3471 3526 3437 3480 3485 3436 3499 3523 3434 3487 3510 3424 3519 3532 3417 3508 3517 3452 3481 3511 3455 3473 3496 3453 3490 3518 3454 3490 3495 3437 3501 3492 3420 3466 3509 3431 3455 3503 3418 3483 3507 3434 3489 3508 3454 3489 3506 3440 3479 3492 3444 3465 3505 3484 3503 3515 3466 3498 3491 3439 3505 3488 3454 3489 3497 3425 3453 3504 3393 3496 3497 3402 3428 3499 3442 3473 3489 3443 3492 3507 3447 3503 3524 3426 3494 3465 3471 3473 3470 3450 3483 3471 3444 3498 3488 3431 3466 3455 3443 3496 3536 3446 3480 3503 3434 3496 3498 3433 3487 3511 3423 3444 3507 3457 3473 3467 3409 3455 3490 3404 3491 3476 3399 3457 3476 3412 3481 3424 3422 3465 3480 3467 3488 3431 3418 3447 3453 3445 3475 3442 3425 3446 3445 3474 3446 3466 3441 3444 3425 3425 3453 3426 3449 3460 3492 3425 3501 3446 3441 3460 3464 3397 3498 3501 3429 3500 3493 3424 3441 3451 3437 3460 3499 3470 3469 3440 3455 3452 3435 3446 3443 3415 3443 3443 3473 3398 3426 3434 3400 3430 3436 3423 3474 3456 3417 3449 3452 3449 3454 3446 3437 3444 3432 3440 3455 3467 3399 3488 3446 3447 3439 3407 3458 3451 3464 3425 3450 3435 3412 3470 3428 3455 3417 3485 3425 3468 3447 3444 3431 3455 3434 3434 3436 3408 3449 3432 3426 3470 3407 3435 3445 3445 3483 3426 3404 3433 3428 3432 3439 3442 3470 3441 3459 3457 3398 3451 3497 3436 3407 3457 3401 3449 3498 3452 3455 3436 3413 3462 3445 3419 3424 3433 3459 3469 3437 3436 3440 3422 3431 3464 3425 3418 3397 3447 3424 3434 3466 3424 3477 3477 3396 3413 3462 3442 3399 3429 3384 3406 3402 3410 3415 3401 3420 3426 3416 3413 3442 3405 3404 3482 3448 3394 3465 3475 3458 3469 3467 3417 3475 3474 3475 3454 3477 3445 3432 3450 3398 3464 3441 3395 3408 3490 3418 3447 3461 3438 3446 3455 3445 3483 3460 3410 3459 3449 3418 3483 3479 3426 3444 3393 3422 3488 3462 3439 3421 3497 3437 3387 3488 3462 3481 3483 3463 3424 3476 3443 3424 3491 3450 3440 3456 3392 3446 3422 3423 3481 3420 3389 3466 3432 3443 3445 3459 3405 3419 3433 3400 3442 3495 3422 3449 3425 3401 3406 3432 3423 3438 3427 3410 3411 3428 3393 3417 3433 3419 3442 3406 3426 3456 3434 3431 3446 3422 3471 3461 3454 3413 3419 3443 3426 3409 3434 3434 3429 3416 3445 3443 3422 3425 3472 3417 3417 3430 3468 3449 3458 3507 3467 3430 3464 3431 3453 3461 3450 3409 3418 3427 3387 3456 3413 3415 3441 3410 3424 3426 3410 3436 3464 3441 3454 3445 3419 3452 3400 3396 3422 3440 3445 3442 3388 3445 3429 3464 3414 3428 3462 3418 3423 3483 3427 3401 3425 3449 3382 3486 3411 3445 3432 3428 3399 3397 3482 3455 3436 3401 3407 3433 3459 3460 3407 3435 3406 3399 3445 3422 3456 3452 3464 3503 3448 3499 3427 3439 3476 3460 3441 3463 3453 3446 3436 3449 3439 3431 3430 3422 3424 3434 3403 3410 3401 3425 3436 3437 3413 3443 3435 3427 3461 3461 3427 3461 3455 3438 3454 3472 3429 3432 3465 3411 3504 3431 3445 3417 3436 3455 3449 3442 3397 3478 3437 3420 3452 3428 3415 3437 3410 3419 3466 3472 3417 3438 3419 3421 3424 3466 3406 3424 3427 3418 3434 3430 3423 3439 3459 3430 3398 3467 3442 3425 3455 3399 3395 3462 3462 3446 3435 3427 3477 3434 3431 3434 3425 3411 3414 3457 3475 3470 3422 3463 3436 3411 3400 3472 3469 3414 3389 3434 3416 3455 3445 3442 3451 3489 3451 3448 3450 3455 3463 3436 3427

Tree=0
num_leaves=31
num_cat=0
split_feature=14 22 14 7 19 20 20 14 17 19 14 14 7 22 17 7 21 5 5 22 17 22 9 14 14 14 14 21 9 7
split_gain=6508.74 2766.05 741.177 717.768 697.552 383.497 378.295 364.385 312.136 275.626 263.784 223.419 337.807 188.992 174.546 158.104 149.648 135.714 124.582 121.248 113.375 108.344 107.936 107.527 101.698 97.4544 90.8203 85.5871 85.0674 79.7522
threshold=5.8708948099675684 3.0627622707884341 3.0080624994952738 6.6562853898301784 1.2900458352648487 1.0000000180025095e-35 1.0000000180025095e-35 9.7188052150139974 5.9386613922652769 -0.53048660076861498 4.0661213723421241 9.0700466212359192 13.942100735375719 1.6970860122572591 4.6042051938104196 12.764940565330582 1.0000000180025095e-35 1.0462244695954239 0.057178831930440051 5.587441024475031 9.9985024645659522 7.3643223874933774 5.4300000051089699 1.9615540750500984 4.499288800475493 2.0043205792485188 1.4615399775024123 1.0000000180025095e-35 7.5705883054172327 20.405260006702054
decision_type=2 2 2 2 2 2 2 2 2 2 2 2 2 2 2 2 2 2 2 2 2 2 2 2 2 2 2 2 2 2
left_child=1 6 14 10 5 27 17 15 24 26 22 12 -7 -11 25 -6 29 -1 -9 -17 -14 -12 -4 -15 -5 -3 -8 -2 -25 -13
right_child=4 2 3 8 7 11 9 18 -10 13 21 16 20 23 -16 19 -18 -19 -20 -21 -22 -23 -24 28 -26 -27 -28 -29 -30 -31
leaf_value=-1.0091377617008879 -0.97192697702644559 -1.0847066022343177 -0.97706935829887576 -1.0637349439141348 -1.0146882063601093 -0.99826253353068317 -1.0747634974809563 -1.0334715552258389 -1.0833932511107813 -1.0316310012891785 -0.99379526716315325 -0.97830906691043595 -1.0336748176390769 -1.06501461062608 -1.093369120634109 -1.0450462312537718 -1.0219013755842092 -1.0390943555802614 -1.0020622846365947 -1.0756788607037142 -1.0650626558783429 -1.0563928580456909 -1.0585797493817837 -0.99701535725863177 -1.032831358497164 -1.0629391495164748 -1.0552811675906568 -1.0017112502225529 -1.0477539267731697 -1.0042290974707884
leaf_weight=741.48138880729675 630.93943864107132 1689.7612566947937 43.536521911621094 1012.2241344451904 188.09137982130051 647.94589251279831 1292.4904942512512 881.61456871032715 3827.1323792934418 1703.7065488696098 405.43386030197144 372.44133979082108 1223.1041624546051 1087.7327896356583 8078.7458472251892 532.98226433992386 1161.5407994389534 771.41274762153625 491.82664597034454 820.05120569467545 376.18275964260101 83.33162397146225 605.0896287560463 86.052656590938568 361.21708023548126 739.10048526525497 1113.5825995206833 390.46818089485168 2064.243370950222 1460.5142585039139
leaf_count=2180 1855 4968 128 2976 553 1905 3800 2592 11252 5009 1192 1095 3596 3198 23752 1567 3415 2268 1446 2411 1106 245 1779 253 1062 2173 3274 1148 6069 4294
internal_value=-1.05689 -1.0698 -1.08169 -1.06819 -1.02074 -1.01134 -1.04718 -1.04095 -1.07606 -1.05187 -1.03221 -1.0168 -1.02872 -1.04511 -1.08984 -1.05764 -1.00786 -1.02441 -1.02222 -1.06361 -1.04106 -1.00447 -1.05311 -1.0522 -1.05561 -1.07808 -1.06575 -0.983313 -1.04572 -0.998962
internal_weight=34884 25706.3 16845.6 6337.97 9177.7 6263.14 8860.7 2914.57 5200.57 7347.81 1137.39 5241.73 2247.23 4941.74 10507.6 1541.12 2994.5 1512.89 1373.44 1353.03 1599.29 488.765 648.626 3238.03 1373.44 2428.86 2406.07 1021.41 2150.3 1832.96
internal_count=102561 75578 49527 18634 26983 18414 26051 8569 15290 21603 3344 15411 6607 14529 30893 4531 8804 4448 4038 3978 4702 1437 1907 9520 4038 7141 7074 3003 6322 5389
is_linear=0
shrinkage=1


Tree=1
num_leaves=31
num_cat=0
split_feature=3 10 3 3 17 20 22 17 3 17 20 17 0 13 6 5 10 6 3 20 21 20 22 5 6 5 20 13 17 19
split_gain=10159.6 2221.97 805.201 652.84 591.548 462.429 451.512 280.527 233.341 244.995 211.191 220.02 189.721 177.834 158.8 142.782 140.795 130.888 128.369 126.246 121.307 117.91 113.487 117.697 98.8593 94.9108 84.8035 98.5806 82.1599 80.4313
threshold=1.7854971296532502 4.1655594537815128 1.1335784048754627 3.3467745666536897 7.2499992005841873 1.0000000180025095e-35 2.4240446437490291 4.3170306281385535 4.8349922440226711 11.009927388963899 1.0000000180025095e-35 11.367397806155557 1.2500000000000002 3.1048349392519907 8.9394662652472991 1.8885335153637608 2.8684527777777782 3.5863414533655482 0.79397732965117018 1.0000000180025095e-35 1.0000000180025095e-35 1.0000000180025095e-35 5.1426171527198772 0.72913111773526673 13.965423820465475 0.50486646097747734 1.0000000180025095e-35 1.7804493814764895 10.470677221197359 0.16852586388397575
decision_type=2 2 2 2 2 2 2 2 2 2 2 2 2 2 2 2 2 2 2 2 2 2 2 2 2 2 2 2 2 2
left_child=2 3 7 10 16 -3 19 18 9 15 13 29 26 -2 -6 17 21 -7 -1 -5 -9 -4 23 -11 -24 28 27 -8 -16 -12
right_child=1 5 4 6 14 8 12 20 -10 22 11 -13 -14 -15 25 -17 -18 -19 -20 -21 -22 -23 24 -25 -26 -27 -28 -29 -30 -31
leaf_value=-0.52351292746904066 -0.46546908052094671 -0.54163063452363502 -0.50308671856955522 -0.53661546047098285 -0.54930394787302184 -0.52913650673419799 -0.44027645052418624 -0.54385144839420774 -0.46181077576938445 -0.47715402737927404 -0.44890257709172304 -0.50429106662372458 -0.47543581067865082 -0.51849328533314731 -0.48730515211703079 -0.5055181918782693 -0.49556308395703508 -0.46670202957838014 -0.5020446206344733 -0.47524057873980946 -0.52427393577357284 -0.46888510231594238 -0.54753480105578056 -0.52851626393822759 -0.50628872536414815 -0.53286869477620058 -0.4377898394840713 -0.48735897162301672 -0.51404829813060826 -0.46087692024294347
leaf_weight=1399.8792663216591 382.10540980100632 343.71878337860107 304.97998607158661 118.32941722869873 346.88832134008408 89.09923380613327 269.76289761066437 1670.3465057015419 1126.2424889802933 460.28734618425369 2572.6083120703697 240.18054330348969 358.86213141679764 269.76289761066437 415.20947295427322 354.28390991687775 1533.7042024731636 1450.9440445899963 1385.440260052681 287.01927095651627 1503.4175063967705 1450.5918737053871 213.41555607318878 147.20742976665497 455.00478291511536 426.47894126176834 12339.715625822544 189.11576503515244 931.49198979139328 3082.903923869133
leaf_count=3975 1085 976 866 336 985 253 766 4743 3198 1307 7305 682 1019 766 1179 1006 4355 4120 3934 815 4269 4119 606 418 1292 1211 35039 537 2645 8754
internal_value=-0.472609 -0.454637 -0.511737 -0.447441 -0.49777 -0.485825 -0.441181 -0.524415 -0.48136 -0.488306 -0.460406 -0.45742 -0.43958 -0.487412 -0.518365 -0.476898 -0.484496 -0.470314 -0.512834 -0.493157 -0.534578 -0.474827 -0.505242 -0.4896 -0.519458 -0.512313 -0.438575 -0.45968 -0.505803 -0.45543
internal_weight=36119 24750.6 11368.4 20110.4 5409.34 4640.2 13562.8 5959.08 4296.48 3170.24 6547.56 5895.69 13157.5 651.868 2120.07 1894.33 3289.28 1540.04 2785.32 405.349 3173.76 1755.57 1275.92 607.495 668.42 1773.18 12798.6 458.879 1346.7 5655.51
internal_count=102561 70280 32281 57104 15360 13176 38512 16921 12200 9002 18592 16741 37361 1851 6020 5379 9340 4373 7909 1151 9012 4985 3623 1725 1898 5035 36342 1303 3824 16059
is_linear=0
shrinkage=1


Tree=2
num_leaves=31
num_cat=0
split_feature=21 20 3 16 6 5 18 4 17 13 16 3 10 18 8 16 12 12 7 17 10 14 12 3 4 14 17 13 16 13
split_gain=1084.89 729.004 459.944 282.883 265.792 245.351 154.789 152.401 151.431 148.103 142.583 179.285 139.498 128.943 125.998 161.803 136.565 121.62 117.838 105.34 100.569 266.89 116.593 165.921 121.738 99.6797 282.262 103.615 92.0928 153.922
threshold=1.0000000180025095e-35 1.0000000180025095e-35 1.2775758294520105 2.8231188426986251 8.3815077419424053 1.6343674943608641 0.058767384684902092 6.7737877144179883 3.6193095766984764 7.0342021580275791 8.8741196031019793 6.0474374732744538 3.3781999455337695 -0.33927483147057613 54.201399419912228 6.6098411478643113 16.575000000000003 41.865000000000002 41.998893288893974 1.6414324317690474 7.7255631136044896 3.6126296395795139 20.355000000000004 1.7328444818063546 4.6110627841669727 2.8969815774222032 2.1464631579421485 6.0299253726725217 5.3712196007982991 5.2630789467762797
decision_type=2 2 2 2 2 2 2 2 2 2 2 2 2 2 2 2 2 2 2 2 2 2 2 2 2 2 2 2 2 2
left_child=7 2 28 -4 -3 17 9 25 12 -5 11 13 -7 14 16 -16 -11 18 20 -8 -6 -22 -23 24 -24 -1 27 -27 29 -2
right_child=1 4 3 6 5 8 19 -9 -10 10 -12 -13 -14 -15 15 -17 -18 -19 -20 -21 21 22 23 -25 -26 26 -28 -29 -30 -31
leaf_value=-3.5521085039424589 -3.4264379313367126 -3.5444395889194316 -2.8384029677726317 -3.3534414033587829 -3.5084205934783013 -3.4066213488551811 -3.2854936320574857 -3.5586519189531214 -3.4415163802705071 -3.4639835555774869 -3.4881508539393646 -3.571225942058319 -3.0850121492972482 -2.7745682139149941 -2.7847817745322159 -3.4210866009851539 -2.7798042798010378 -3.5454918379359821 -3.225667141175637 -3.4553533990322838 -2.8150296271293733 -3.5016609056450885 -3.5515648378701665 -3.48892364545675 -3.1649508430666184 -3.2763093792360305 -3.5192487691588781 -2.5039088575586081 -3.5028160726913224 -2.9193051189774701
leaf_weight=374.00409597158432 21.065280564129356 421.85661459714174 2.7974014431238166 30.305182300508022 242.01760970056057 7.2901977002620679 12.24922753125429 2377.9183812662959 65.145545728504658 0.93246714770793726 3.0093257948756209 1.8649342954158772 6.2729608118534088 3.2636350169777897 1.2715461105108259 4.6623357385396957 3.3484047576785088 134.06334491819143 4.1961021646857253 35.815215446054935 1.6530099436640728 51.031383901834488 2.5430922210216531 14.580395400524138 10.21475375443697 0.8476974070072163 417.49097295105457 0.89008227735757828 92.822866067290306 1.610625073313712
leaf_count=8824 497 9953 66 715 5710 172 289 56103 1537 22 71 44 148 77 30 110 79 3163 99 845 39 1204 60 344 241 20 9850 21 2190 38
internal_value=-3.53711 -3.49609 -3.41287 -3.33409 -3.51471 -3.49145 -3.34842 -3.55232 -3.40987 -3.28556 -3.17346 -3.11174 -3.25788 -3.04817 -3.13558 -3.28474 -2.92883 -3.5054 -3.48892 -3.41206 -3.49235 -3.44376 -3.45702 -3.3737 -3.24202 -3.53334 -3.5166 -2.88069 -3.48075 -3.39042
internal_weight=4347.03 1175.88 215.018 99.5197 960.865 539.008 96.7223 3171.15 78.7087 48.6578 18.3526 15.3433 13.5632 13.4784 10.2148 5.93388 4.28087 460.3 326.236 48.0644 322.04 80.0226 78.3696 27.3382 12.7578 793.233 419.229 1.73778 115.499 22.6759
internal_count=102561 27743 5073 2348 22670 12717 2282 74818 1857 1148 433 362 320 318 241 140 101 10860 7697 1134 7598 1888 1849 645 301 18715 9891 41 2725 535
is_linear=0
shrinkage=1


Tree=3
num_leaves=31
num_cat=0
split_feature=3 14 14 6 3 14 3 6 3 22 14 14 6 14 6 14 22 13 22 6 14 14 22 6 14 14 3 3 3 17
split_gain=8532.18 2617.56 903.942 617.658 604.179 414.489 408.138 394.101 251.643 209.006 158.373 150.308 308.301 112.884 233.764 105.919 105.217 102.172 86.3575 86.0933 82.6098 81.107 76.4266 72.7803 126.678 71.2418 67.6398 65.3305 64.5134 54.7014
threshold=1.8407878715906849 6.4150785009962741 4.3618978679267961 9.8259105529860182 1.1335784048754627 10.476292879277542 3.3760405784975345 6.6183029656104573 1.1759676866308861 3.0871522846336572 9.0700466212359192 3.7995737935662737 5.1825180938588717 2.2055374888280599 2.1874240230756192 1.0655985963126489 1.610589504006753 7.6941536246685933 6.1872766793381162 13.640617063936515 14.922901058659134 0.81394211946304262 4.239645777725797 4.4832341246655103 4.1905854579537909 9.2298382474327116 1.4378282232929223 11.526794844637772 0.86353922898731028 5.6545462717673427
decision_type=2 2 2 2 2 2 2 2 2 2 2 2 2 2 2 2 2 2 2 2 2 2 2 2 2 2 2 2 2 2
left_child=2 6 4 22 15 18 11 -4 25 -8 -10 16 -13 -11 -15 -1 -2 27 -5 -12 -19 -6 -3 24 -16 -9 -23 -7 -17 -14
right_child=1 3 7 5 21 17 9 8 10 13 19 12 29 14 23 28 -18 20 -20 -21 -22 26 -24 -25 -26 -27 -28 -29 -30 -31
leaf_value=0.017927772067361691 0.0030441673592897364 0.034366097630639733 0.078831964298177348 0.0042169549451039423 -0.019756964411333497 0.053517085963589818 -0.0070856585155189989 0.0453799559219423 0.017808843005440139 -0.036600231095079733 0.067318687616259129 0.061457518679228287 0.0099565384373462157 0.082725504421802987 -0.017247524961120333 0.048156024332570019 -0.022038351538653758 0.0066740166270045712 -0.017713522052830191 0.03656919872548977 0.033351598171464873 0.016286384308323403 0.071534174184525776 -0.029452268769097796 0.072092283064185761 0.062057182546297857 -0.00081949867990780171 -0.037123145525344729 0.031417328512249702 -0.013770672266907173
leaf_weight=622.636314868927 466.15756180882454 189.33621698617935 921.13302624225616 921.16859415173531 328.01748615503311 414.83638527989388 906.84246224164963 1219.1954425573349 1113.1170141994953 6299.0804449915886 293.46686810255051 171.82530066370964 301.80733367800713 48.212051421403885 386.22668758034706 1367.4710001349449 4055.8689661324024 548.3631905913353 875.56587865948677 1014.6998274326324 616.35667636990547 1041.1209336817265 513.16730862855911 5269.8425202667713 44.221161127090454 1348.8051308095455 1298.8625096082687 20.880538493394852 994.0988991856575 1244.7341160178185
leaf_count=1804 1368 547 2625 2695 966 1195 2668 3503 3238 18922 839 498 884 142 1156 3946 12028 1586 2580 2914 1778 3042 1478 15750 130 3848 3807 61 2884 3679
internal_value=3.49965e-07 -0.017428 0.0351121 0.0188388 0.0208162 0.0100134 -0.0251739 0.0487835 0.0432359 -0.0302342 0.0316716 -0.0146692 -0.002081 -0.0319767 -0.0269103 0.0362731 -0.0194527 0.0285184 -0.00646998 0.0434674 0.0207915 0.00352738 0.0615168 -0.0278376 -0.00806939 0.0541394 0.00679136 0.0491734 0.0411099 -0.00914031
internal_weight=34857.1 23294.5 11562.6 4099.67 5652.21 3397.17 19194.8 5910.42 4989.28 12954.4 2421.28 6240.39 1718.37 12047.6 5748.5 2984.21 4522.03 1600.44 1796.73 1308.17 1164.72 2668 702.504 5700.29 430.448 2568 2339.98 435.717 2361.57 1546.54
internal_count=102561 69145 33416 11920 16449 9895 57225 16967 14342 38768 6991 18457 5061 36100 17178 8634 13396 4620 5275 3753 3364 7815 2025 17036 1286 7351 6849 1256 6830 4563
is_linear=0
shrinkage=0.05


Tree=4
num_leaves=31
num_cat=0
split_feature=3 14 3 21 14 6 14 3 14 20 14 6 6 5 3 19 14 6 6 14 5 5 14 17 13 14 6 5 14 6
split_gain=9030.22 3050.06 804.457 624.185 621.073 612.165 449.001 346.884 325.896 244.486 193.615 359.97 179.757 157.98 140.337 135.668 127.919 262.235 120.559 112.098 106.628 101.333 95.4853 106.705 81.5882 84.334 76.9882 70.2767 69.7484 67.5265
threshold=1.8407878715906849 6.4150785009962741 1.2033287165193041 1.0000000180025095e-35 5.0460395375545781 9.9739586176981501 10.476292879277542 3.3467745666536897 3.5085189470378424 1.0000000180025095e-35 3.838854518252123 6.1693857183940244 6.6183029656104573 0.44113215142014944 0.84999999999999665 1.2900458352648487 2.2055374888280599 2.1874240230756192 6.6183029656104573 9.0700466212359192 1.3187087374000663 3.6132282535694977 1.2041807267262066 2.0768495171614738 7.6941536246685933 14.159640960142111 7.0825653702631115 0.8297285492793639 0.41725245920911186 13.965423820465475
decision_type=2 2 2 2 2 2 2 2 2 2 2 2 2 2 2 2 2 2 2 2 2 2 2 2 2 2 2 2 2 2
left_child=2 3 8 7 22 26 13 10 14 -5 -2 -12 -6 -7 28 -11 -9 -18 -10 -14 24 -19 -4 -24 -8 -26 -3 -13 -1 -21
right_child=1 5 4 9 12 6 20 16 18 15 11 27 19 -15 -16 -17 17 21 -20 29 -22 -23 23 -25 25 -27 -28 -29 -30 -31
leaf_value=-0.0010557562485503079 0.023542981849955569 -0.077245635675411539 0.014505378236241812 -0.032421585229065145 -0.075635608968365742 0.013957627779855179 -0.04516609798610767 0.03804793558246778 -0.074060724577649936 0.014039509627888115 -0.064990769169480933 0.019101041799783627 -0.020182999358134265 -0.018651572223094437 -0.022291864063356266 -0.0266751930384879 -0.08221393667414939 0.031250965614336344 -0.051973318253479908 -0.063781653297715957 -0.057677468179362638 0.0099693864578515728 -0.048369895350172262 -0.0059121337718780085 0.00055410862418107433 -0.029493424322581313 -0.045111129834446699 -0.010508200958986243 -0.047151563533857195 -0.036957598934937039
leaf_weight=87.05744880437851 3411.0482339262962 392.56624919176102 538.08970895409584 423.98558849096298 295.07073929905891 1326.4945803284645 365.0918120443821 6794.8555247485638 770.16775605082512 1779.576756477356 179.62461656332016 787.96574369072914 871.24661904573441 515.85401773452759 1337.2176738679409 231.18507498502731 53.445367902517319 5367.5200350880623 3122.8502361476421 309.1766794025898 307.2314221560955 624.41891568899155 159.56487837433815 2038.6104262173176 389.84748888015747 582.35307103395462 354.89006593823433 268.74910995364189 1430.6534886956215 972.94286903738976
leaf_count=244 9762 1095 1529 1184 818 3768 1022 19635 2136 5070 505 2250 2450 1458 3764 656 152 15453 8690 859 856 1793 447 5767 1094 1631 996 765 4001 2711
internal_value=3.25364e-05 0.0176109 -0.0355535 0.0258017 -0.0207428 -0.0209266 -0.0121245 0.029104 -0.0469332 0.00208284 0.0173989 0.000447252 -0.039037 0.00482712 -0.0341019 0.00935838 0.0333406 0.0280497 -0.0563429 -0.034022 -0.0311152 0.0290332 -0.00437292 -0.00899413 -0.0250127 -0.0174445 -0.0619883 0.0115707 -0.0445075 -0.0434261
internal_weight=36089.4 24156.7 11932.6 19922.4 5184.7 4234.33 3486.87 17487.6 6747.95 2434.75 4647.39 1236.34 2448.44 1842.35 2854.93 2010.76 12840.2 6045.38 3893.02 2153.37 1644.52 5991.94 2736.27 2198.18 1337.29 972.201 747.456 1056.71 1517.71 1282.12
internal_count=102561 69145 33416 57225 14581 11920 9829 50315 18835 6910 13282 3520 6838 5226 8009 5726 37033 17398 10826 6020 4603 17246 7743 6214 3747 2725 2091 3015 4245 3570
is_linear=0
shrinkage=0.05


Tree=5
num_leaves=31
num_cat=0
split_feature=21 19 20 22 22 14 16 14 17 17 12 12 10 10 12 14 12 22 19 13 8 22 12 12 14 12 11 19 19 8
split_gain=958.94 833.846 420.246 387.572 277.82 181.722 195.348 140.766 369.01 140.628 163.626 183.111 110.656 108.299 130.438 102.824 98.7357 98.47 104.894 90.1534 89.0919 80.9039 86.1624 74.175 74.1021 114.016 72.5483 72.5146 72.2856 71.5993
threshold=1.0000000180025095e-35 1.3123360039802876 1.0000000180025095e-35 0.86278700103395078 1.9948684651316355 1.6144651146645341 7.1309185944028011 3.838854518252123 3.2217154305809448 5.0474736131097 7.6250000000000009 38.265000000000008 6.7327967391304355 5.3983970588235302 42.195000000000007 2.2958432053935742 12.765000000000002 1.4924143056373951 2.4995503876741934 6.3639610306789267 49.822154123159557 0.58137606036007206 27.875000000000004 3.4050000000000007 2.2958432053935742 49.095000000000006 48.355000000000011 1.7923105557601766 0.079533615832547824 57.739443767750323
decision_type=2 2 2 2 2 2 2 2 2 2 2 2 2 2 2 2 2 2 2 2 2 2 2 2 2 2 2 2 2 2
left_child=7 2 4 12 5 -2 21 17 19 10 27 -12 20 -4 15 -15 23 18 -1 -9 26 -7 -23 29 -24 -26 -3 -5 -8 -17
right_child=1 3 13 9 -6 6 28 8 -10 -11 11 -13 -14 14 -16 16 -18 -19 -20 -21 -22 22 24 -25 25 -27 -28 -29 -30 -31
leaf_value=0.044451428371530315 0.056707004760834102 0.50865713530837453 -0.0023512035678855954 0.2835228582670194 0.018664046707991787 0.44719149848168072 0.07656141623689551 0.23890961599938745 -0.0042160715462283621 0.07389096229244102 0.085633201947571402 0.31241478531357841 0.057185189234301985 0.24177020084674208 -0.013403480528349077 0.019613458695015764 0.086733019255335317 -0.025166820395724598 0.41311163867875439 0.62648126475902166 0.37732576019072006 0.14809180410330031 0.17717037577923631 -0.0030510977413289353 0.48429851705924948 0.090908025292204236 0.92515887752805614 0.65708943530276198 0.23051856654872649 0.21881299397170767
leaf_weight=21.577108040452007 50.456891246140003 2.6678980812430364 609.33128648251295 2.6715774014592162 91.235131219029427 5.0833506509661666 36.928249854594469 4.757554054260253 1257.2105881720781 42.009228948503733 24.963652566075325 13.833407569676636 1.6320569105446328 7.2380311302840701 97.903923697769642 10.186185825616123 95.306744065135717 1826.9789582230151 2.1189511790871611 2.1916384361684322 6.1879364736378193 15.608809277415274 6.3775382488966015 86.176184456795454 7.9964023940265161 2.39307876303792 1.7192999236285684 2.5285941585898399 9.6077722460031492 8.0966110974550229
leaf_count=511 1076 47 14130 53 1914 91 793 112 29967 930 517 281 31 151 2290 231 2057 44155 35 38 114 324 132 1952 151 51 36 40 167 184
internal_value=-0.000272554 0.0369499 0.0249058 0.176741 0.0860084 0.131706 0.176759 -0.0150684 -0.00220767 0.139321 0.201796 0.166494 0.440385 0.00982212 0.0341494 0.0566399 0.0499322 -0.0238533 0.0774178 0.361142 0.499525 0.261748 0.232632 0.0163557 0.311332 0.393686 0.67188 0.46517 0.108347 0.10783
internal_weight=4352.97 1238.14 1139.93 98.2137 225.687 134.452 83.9952 3114.83 1264.16 86.0065 43.9972 38.7971 12.2072 914.239 304.908 207.004 199.766 1850.68 23.6961 6.94919 10.5751 37.4592 32.3758 104.459 16.767 10.3895 4.3872 5.20017 46.536 18.2828
internal_count=102561 27743 25694 2049 4699 2785 1709 74818 30117 1821 891 798 228 20995 6865 4575 4424 44701 546 150 197 749 658 2367 334 202 83 93 960 415
is_linear=0
shrinkage=0.05


Tree=6
num_leaves=31
num_cat=0
split_feature=3 14 14 6 3 3 14 6 3 14 6 14 5 14 6 17 14 5 13 3 5 6 21 6 5 14 3 5 21 17
split_gain=7404.88 2318.73 763.317 517.623 514.047 373.414 358.107 331.614 203.446 165.955 317.412 145.14 142.65 115.641 222.114 114.631 104.851 104.129 89.5845 79.5463 74.0271 72.4316 71.9175 71.6359 65.9977 66.2407 61.398 57.0516 56.5362 55.745
threshold=1.8407878715906849 6.4150785009962741 4.3618978679267961 8.7959463850991089 1.2483388922777958 3.1190543438677021 10.476292879277542 7.489320722349019 1.1335784048754627 3.0080624994952738 4.4832341246655103 9.0700466212359192 0.30897966311084329 3.8748034839228334 5.3101487867620838 5.6870111037075004 1.1043552102009395 0.8297285492793639 7.6941536246685933 0.86353922898731028 0.33804292858471202 15.456132843136073 1.0000000180025095e-35 3.0206310400051981 1.5733071400154865 22.736612033491941 11.526794844637772 3.5521317377147503 1.0000000180025095e-35 2.0121389089587347
decision_type=2 2 2 2 2 2 2 2 2 2 2 2 2 2 2 2 2 2 2 2 2 2 2 2 2 2 2 2 2 2
left_child=2 5 4 -3 16 13 12 28 22 27 23 20 -5 29 -15 -12 -1 -16 26 -18 -10 -13 -9 -11 25 -20 -8 -7 -4 -2
right_child=1 3 7 6 -6 9 18 8 11 10 15 21 -14 14 17 -17 19 -19 24 -21 -22 -23 -24 -25 -26 -27 -28 -29 -30 -31
leaf_value=0.014536778306974089 0.00669139921210022 0.06101649626072253 0.075642612438932166 -0.013815010830969613 0.0002285681892988669 -0.034211694226988582 0.049868278621193633 0.058705803311760146 0.0067427323607766243 0.072570816498363 -0.0032186944229728748 0.056179633198821667 0.016018528202404899 0.055433167572458669 -0.016533059129171843 -0.026877998442858209 0.044082883667433959 0.015080641942801546 0.010439774600300041 0.027098673595566627 0.033568439015211893 0.032129106040234667 0.041108136414872154 0.015128084490650645 0.04588496632132278 0.054086466437876082 -0.035764837445927809 -0.024399326512927644 0.05068699376075364 -0.018687711904204481
leaf_weight=755.53687098622322 230.13552671670914 583.86218872666359 834.98406162858009 1310.5308803915977 2202.4493286311626 7243.8368555307388 440.96506720781326 1135.7935215830803 747.01229971647263 86.180267482995987 595.2578250169754 462.25528186559677 577.13839635252953 157.80697712302208 907.21171906590462 3658.7473344802856 1373.9032582044601 365.37383055686951 903.58664226531982 1383.7206659018993 392.19652089476585 969.90138214826584 1187.6982587873936 146.6047240793705 203.37185025215149 96.181574463844299 21.975131064653397 1862.1703020632267 311.65945422649384 3616.7838080525398
leaf_count=2167 675 1631 2304 3873 6446 22230 1239 3158 2154 246 1771 1290 1679 445 2701 11113 3872 1074 2588 3964 1125 2734 3331 435 573 273 64 5686 871 10849
internal_value=-1.59811e-05 -0.0165117 0.0322649 0.017386 0.0191666 -0.0239444 0.0102177 0.0446566 0.0389869 -0.028327 -0.0204564 0.0292972 -0.00469367 -0.0126562 -0.00051816 -0.0235674 0.0310392 -0.0074564 0.0271123 0.0355605 0.015978 0.0398919 0.0497104 0.0363942 0.0199204 0.0146388 0.0458034 -0.0322051 0.0688596 -0.0171694
internal_weight=34764.8 23007.7 11757.1 4137.61 5715.61 18870.1 3553.75 6041.5 4894.86 13592.8 4486.79 2571.37 1887.67 5277.31 1430.39 4254.01 3513.16 1272.59 1666.08 2757.62 1139.21 1432.16 2323.49 232.785 1203.14 999.768 462.94 9106.01 1146.64 3846.92
internal_count=102561 69145 33416 11920 16449 57225 10289 16967 13792 41481 13565 7303 5552 15744 4220 12884 10003 3775 4737 7836 3279 4024 6489 681 3434 2861 1303 27916 3175 11524
is_linear=0
shrinkage=0.05


Tree=7
num_leaves=31
num_cat=0
split_feature=3 14 14 21 6 3 14 3 6 19 3 14 14 6 14 6 17 17 14 17 17 14 3 6 14 6 14 17 3 6
split_gain=7861.64 2770.81 629.918 579.658 570.686 505.46 431.958 344.414 255.027 203.264 188.072 145.949 131.622 325.251 128.457 255.818 99.801 99.4142 97.9617 94.832 94.6133 92.8511 76.4933 70.7755 78.0596 66.977 63.318 73.271 62.1188 60.9284
threshold=1.7854971296532502 6.1684964415434678 4.3618978679267961 1.0000000180025095e-35 8.7959463850991089 1.0816191556472456 10.476292879277542 2.9816186873165282 6.6183029656104573 1.1372138639143032 1.1335784048754627 9.0700466212359192 3.0080624994952738 3.0206310400051981 3.7624924339301713 5.9702938244913009 1.7999029539196056 7.6900036533773664 0.79196078179037521 5.6228550828595374 1.8728991572936196 1.1043552102009395 1.3243866504914645 14.392162861480019 16.783547029319063 4.4832341246655103 7.9497094586020003 10.570081928695322 0.86353922898731028 12.569128016171309
decision_type=2 2 2 2 2 2 2 2 2 2 2 2 2 2 2 2 2 2 2 2 2 2 2 2 2 2 2 2 2 2
left_child=2 3 5 7 -3 21 17 14 -4 16 -10 -12 -9 -14 -2 -16 -5 -6 -7 -15 -20 -1 -22 -8 -25 -21 -19 -28 -23 -13
right_child=1 4 8 9 6 18 23 12 10 -11 11 29 13 19 15 -17 -18 26 20 25 22 28 -24 24 -26 -27 27 -29 -30 -31
leaf_value=-0.019727046224077279 0.019802253653010131 -0.06109416480789745 -0.068849961494795761 -0.031410658405981166 -0.023091353302319109 0.01900140266048056 -0.049807773530919447 0.034697441811715246 -0.050298879639637167 -0.033256829075993304 -0.017848413067855003 -0.0640176521670002 -0.077271480518696201 0.0040987889227982015 -0.061299563370032187 0.0093947820467046115 0.010723113257164803 0.016451089687804257 -0.039917157035051484 -0.0091375890187756128 -0.019074752162320064 -0.047639555330706018 0.00015831954194920247 -0.015497341531332627 -0.039538549461567679 0.029775616680572325 -0.020640923540555189 0.0087982595974594648 -0.030374170568994698 -0.036945723349376354
leaf_weight=644.95673355460167 2564.0657803416252 669.69970753788948 941.99517610669136 151.16822329163551 303.42362862825394 329.27779364585876 347.69873955845833 9356.6360659301281 2490.6858296096325 351.34939929842949 1156.5949413776398 253.49499779939651 77.723414480686188 442.92022362351418 151.08644843101501 836.3241391479969 1999.8736525177956 995.39514699578285 239.18307283520699 114.09038823843002 812.01568728685379 1410.1409566700459 1422.7979246377945 886.04819518327713 545.51555544137955 3592.579187899828 329.34483107924461 589.98636546730995 826.20151007175446 1153.8929715156555
leaf_count=1789 7420 1833 2552 421 855 941 958 27550 6797 985 3225 689 216 1277 416 2399 5717 2844 665 328 2273 3872 4020 2458 1505 10493 932 1673 2291 3167
internal_value=5.03169e-05 0.0162518 -0.0336599 0.0244819 -0.0183778 -0.0217345 -0.0112214 0.0277647 -0.0449647 0.00200281 -0.0405134 -0.0310076 0.0313892 0.0240669 0.0139012 -0.00142236 0.00776209 0.0034992 -0.00661887 0.025965 -0.0100288 -0.0364408 -0.00682998 -0.0295731 -0.0246585 0.0285779 0.00771296 -0.00174815 -0.041261 -0.0418218
internal_weight=35986.2 24304.9 11681.2 19637.8 4667.11 5684.57 3997.41 17135.4 5996.66 2502.39 5054.67 2563.98 13583.9 4227.31 3551.48 987.411 2151.04 2218.15 2803.27 4149.59 2474 2881.3 2234.81 1779.26 1431.56 3706.67 1914.73 919.331 2236.34 1407.39
internal_count=102561 70280 32281 57222 13058 15851 11225 50099 16430 7123 13878 7081 39864 12314 10235 2815 6138 6304 7899 12098 6958 7952 6293 4921 3963 10821 5449 2605 6163 3856
is_linear=0
shrinkage=0.05


Tree=8
num_leaves=31
num_cat=0
split_feature=20 19 10 22 22 3 17 22 19 22 6 12 12 3 10 11 11 16 18 9 22 19 17 3 12 5 14 11 14 5
split_gain=672.365 572.155 273.444 251.568 189.76 171.121 167.673 138.097 325.43 111.366 99.9907 81.0848 118.917 126.072 119.949 134.748 89.0333 99.4408 115.229 87.3745 71.471 104.21 80.6947 68.6359 66.8916 59.9937 53.8634 71.3318 53.5722 52.6644
threshold=1.0000000180025095e-35 0.14191612618480501 5.3983970588235302 2.0200126250664758 3.7315285014920305 2.3837155870615092 3.5438048098940427 0.86278700103395078 1.6733886579026589 0.63988378666169821 12.469195275385166 40.895000000000003 22.915000000000003 1.7506855799943082 9.4480916666666683 62.245000000000012 71.345000000000013 8.9185200566012703 -0.92791750469339063 32.094999580383309 3.8376704626345943 2.4995503876741934 2.8591783358955687 1.2483388922777958 47.545000000000009 2.9051168675922781 1.7741755541066468 60.625000000000007 7.7065502242405399 4.2163711659317569
decision_type=2 2 2 2 2 2 2 2 2 2 2 2 2 2 2 2 2 2 2 2 2 2 2 2 2 2 2 2 2 2
left_child=1 3 7 5 23 -1 -4 8 25 -7 -9 12 29 14 -14 28 -17 18 -18 -19 21 -12 -23 -3 -6 -2 -27 -28 -16 -8
right_child=2 4 6 -5 24 9 11 10 -10 -11 20 -13 13 -15 15 16 17 19 -20 -21 -22 22 -24 -25 -26 26 27 -29 -30 -31
leaf_value=0.058428203402619089 0.0060246196570575387 0.12446049190621529 0.16879829190432882 0.00050995907391099076 0.014842138774520411 0.40805947934909437 0.01042270151447381 -0.020602047796881563 0.39767598603826226 0.14706034266438497 0.014215674445069625 -0.0084503041685100016 0.076793168838795098 0.027462769806391087 0.38271958945280882 0.7279826987930984 0.5528422923499402 0.18298156633921617 -0.034494662427144947 0.74092060450690367 -0.0090514367925218289 0.44585160990358474 0.1044878182319766 0.23668905907116919 0.38234308952479912 0.06499761078122078 0.69390121842515962 0.10305449759845467 0.050065533258535577 0.17307149375576994
leaf_weight=120.98041534423828 56.938343238085508 18.530530028045177 18.892877802252769 270.91162380576134 20.243554338812832 5.2990512028336552 302.38018756359816 2245.0918106436729 6.3435643799602977 17.870103903114796 207.9241734482348 202.74513443559408 36.386710129678249 71.928866598755121 1.4369957186281697 1.5081423036754111 1.1912842132151129 1.1480626761913302 2.7927926480770111 1.8047952130436895 652.98612454161048 1.9746486768126512 14.042782064527271 51.444976713508368 1.3188808932900418 4.0221265256404868 0.96099100634455714 1.0904897376894949 7.6720607988536358 5.0601496919989577
leaf_count=2414 1307 344 332 6236 416 72 6840 54968 74 315 4815 4745 758 1609 24 31 21 20 59 31 15647 32 326 711 26 88 20 23 146 111
internal_value=-0.000288342 0.0538584 -0.00742001 0.0289045 0.167007 0.0822686 0.0220084 -0.0134594 0.0563237 0.206754 -0.0150097 0.0176482 0.0298597 0.0707965 0.128581 0.235928 0.3798 0.304103 0.141126 0.523996 -0.000692167 0.0236824 0.146572 0.206969 0.0373206 0.0219589 0.171338 0.379829 0.102543 0.0130997
internal_weight=4352.92 506.599 3846.32 415.061 91.5379 144.15 654.948 3191.38 69.3555 23.1692 3122.02 636.055 433.31 125.87 53.9408 17.5541 8.44508 6.93693 3.98408 2.95286 876.928 223.942 16.0174 69.9755 21.5624 63.012 6.07361 2.05148 9.10906 307.44
internal_count=102561 10534 92027 9037 1497 2801 14727 77300 1512 387 75788 14395 9650 2699 1090 332 162 131 80 51 20820 5173 358 1055 442 1438 131 43 170 6951
is_linear=0
shrinkage=0.05


Tree=9
num_leaves=31
num_cat=0
split_feature=3 14 3 14 6 14 14 22 14 6 6 6 3 10 17 14 14 22 22 13 6 22 14 9 9 21 6 14 15 3
split_gain=6467.01 1838.76 780.545 505.878 404.698 349.818 296.744 294.474 239.513 506.615 163.772 154.594 116.758 103.146 96.7512 95.1819 94.5476 71.7842 68.0634 68.0453 60.6736 60.4833 60.0186 63.4711 63.9155 56.4806 54.6733 60.1569 54.6021 52.2246
threshold=2.0131567251458562 6.4150785009962741 1.3091982279242511 5.0460395375545781 9.9021620626650968 3.4406114293802674 11.121231893818228 2.2357782073770447 3.0688856897037633 4.4832341246655103 8.1839604345679842 6.363881630119427 0.87726848797845125 1.6000000000000012 5.4022359420649915 8.2084863306467906 9.2298382474327116 4.4349729923776424 7.4314094850459238 7.6941536246685933 12.850794659279176 2.3396368666223819 1.3033416930748991 5.8963636190241084 48.671270652649902 1.0000000180025095e-35 6.8087441760242786 8.9189052103765132 -0.85873114167156317 11.526794844637772
decision_type=2 2 2 2 2 2 2 2 2 2 2 2 2 2 2 2 2 2 2 2 2 2 2 2 2 2 2 2 2 2
left_child=2 7 5 22 26 12 18 -2 17 13 21 -7 -1 -10 -11 -12 -13 -9 -6 29 -18 -5 -4 -24 -25 -17 -3 -28 -21 -8
right_child=1 4 3 10 6 11 19 8 9 14 15 16 -14 -15 -16 25 20 -19 -20 28 -22 -23 23 24 -26 -27 27 -29 -30 -31
leaf_value=0.034489275609048194 -0.0016558225637924688 0.064560222742828757 -0.015092660788708424 0.012917620010455988 0.0016698083939047964 0.065829701356482487 0.049334348825622085 -0.024498058482811644 -0.01169203034862564 -0.002851133410947301 0.0084304127782413585 0.034798147364203461 0.015266348367315961 0.057032399933066746 -0.023438057218910169 0.039268935690954472 0.067060176851952313 -0.032981582967768028 -0.018401931402801643 -0.013495866461206395 0.045412769423450523 0.065571432622420045 0.046913988274138785 -0.00054359553167751041 0.053473904859394322 0.018344438237353322 0.01565266993097086 0.058574006224492062 0.023228111719066993 -0.042172736394265053
leaf_weight=1600.1929574608803 1405.8278437554836 334.5993891954422 622.71974176168442 64.181944876909256 1140.9772425591946 852.30994310975075 321.61544907093048 3934.2295446693897 68.888456910848618 651.05682280659676 685.48588937520981 1995.4521609544754 1560.0225916206837 263.17772036790848 4624.3345807492733 843.08657097816467 428.97574374079704 6809.3379952311516 670.6000040769577 115.17619627714157 1318.8290143013 363.05268242955208 77.506296783685684 2103.8744879961014 56.225182741880417 522.2857813835144 173.67751944065094 154.0410347878933 835.08243525028229 16.386583298444748
leaf_count=4458 4184 912 1855 179 3343 2319 890 12154 204 1940 1974 5541 4450 746 14214 2343 1169 21428 1994 326 3618 988 224 6168 163 1463 487 424 2355 48
internal_value=-2.86081e-05 -0.0168875 0.0276773 0.0129631 0.0148656 0.0378053 0.00728538 -0.0236151 -0.0255031 -0.0171267 0.0294993 0.0466111 0.025 0.0427752 -0.0208973 0.0236326 0.0422351 -0.029875 -0.00576024 0.0256304 0.0507258 0.0576614 -0.00136329 0.00245756 0.000862425 0.0312648 0.0503431 0.0358274 0.018777 0.044898
internal_weight=34613.2 21519 13094.2 5338.42 3762.16 7755.78 3099.84 17756.9 16351 5607.46 2478.09 4595.57 3160.22 332.066 5275.39 2050.86 3743.26 10743.6 1811.58 1288.26 1747.8 427.235 2860.33 2237.61 2160.1 1365.37 662.318 327.719 950.259 338.002
internal_count=102561 65649 36912 15357 10779 21555 8956 54870 50686 17104 6947 12647 8908 950 16154 5780 10328 33582 5337 3619 4787 1167 8410 6555 6331 3806 1823 911 2681 938
is_linear=0
shrinkage=0.05


Tree=10
num_leaves=31
num_cat=0
split_feature=3 14 22 3 14 6 14 14 6 14 20 17 5 6 3 6 5 5 22 19 21 14 14 17 14 14 13 9 5 14
split_gain=6872.28 2372.58 694.892 631.873 492.382 472.814 377.629 289.544 475.015 241.021 208.564 156.911 140.269 139.258 111.877 111.75 109.424 103.61 100.276 100.057 94.7476 88.1117 80.4737 94.1311 78.6738 75.5577 71.9636 71.1832 70.0244 70.0151
threshold=1.8796276226955169 6.1684964415434678 2.1791978392652704 1.2033287165193041 5.0460395375545781 7.8990683032625624 9.7188052150139974 3.0080624994952738 3.0206310400051981 3.5085189470378424 1.0000000180025095e-35 4.9851716318466117 0.44113215142014944 7.8990683032625624 0.79397732965117018 5.3101487867620838 0.35297854906437059 0.30897966311084329 4.4349729923776424 1.6733886579026589 1.0000000180025095e-35 2.0694921716516403 1.2041807267262066 2.2705726824474048 9.9023805797842783 4.2737278499290552 7.5690157880664861 5.8963636190241084 3.4363647070601995 14.922901058659134
decision_type=2 2 2 2 2 2 2 2 2 2 2 2 2 2 2 2 2 2 2 2 2 2 2 2 2 2 2 2 2 2
left_child=3 2 10 9 22 -3 12 18 -9 14 21 -10 -7 -6 -1 25 24 26 -4 -12 -11 -2 -5 -24 -15 -13 -8 -25 -17 -28
right_child=1 5 7 4 13 6 17 8 11 20 19 15 -14 16 -16 28 -18 -19 -20 -21 -22 -23 23 27 -26 -27 29 -29 -30 -31
leaf_value=-0.039728639616140586 -0.0075291000478658254 -0.06115831211927452 0.025377197077470423 0.013774691246637997 -0.059341151322363943 0.013077108365446672 -0.037352639166573158 -0.069583366344537101 -0.0059668954091718213 -0.055220270104382796 0.0059134357692080114 0.010792245348369081 -0.016254367312498474 -0.0074768773262012317 -0.020090738923651503 0.026112321021147824 -0.04472520045336114 -0.043301492178063283 0.035077919713076396 -0.037716899454194847 -0.039834191510166289 -0.064848907145506451 -0.039373550190349715 -0.049549340852412541 -0.030414557360268598 -0.040837257437565479 0.00077477413206719897 -0.0022612130987548647 0.0027975486407301785 -0.026442579142497043
leaf_weight=1333.5762957632542 101.19701933860779 528.66804778575897 4291.1172705888748 566.58064150810242 421.59482872486115 1406.6658050119877 367.36593100428581 151.54002046585083 526.26668190956116 2109.8462246358395 1128.4288005828857 221.47010341286659 573.89432802796364 655.75270956754684 1589.9224686920643 4655.8485628664494 675.55810868740082 620.41896903514862 7025.3345716893673 148.72366005182266 1903.1263561546803 198.6600693166256 207.52494916319847 82.797629177570343 869.5153700709343 104.20627877116203 531.74476179480553 2048.8889713585377 345.98513746261597 425.25322702527046
leaf_count=3627 283 1425 12706 1623 1133 4036 1006 414 1505 5677 3254 643 1610 1822 4382 13725 1843 1693 21149 420 5149 544 572 232 2362 292 1481 5775 1012 1166
internal_value=5.9565e-05 0.0160605 0.0237974 -0.0299184 -0.0173082 -0.0167682 -0.0107897 0.0266903 0.0178163 -0.0399684 -0.00797796 0.0200789 0.00457791 -0.0330158 -0.0290487 0.0226518 -0.0279728 -0.02644 0.0313995 0.000832709 -0.0479235 -0.0455044 -0.00313239 -0.00722745 -0.020553 -0.00572758 -0.0185409 -0.00409795 0.0244996 -0.0113196
internal_weight=35817.5 23352.8 18898.8 12464.7 5528.21 4454.01 3925.34 17321.8 6005.32 6936.47 1577.01 5853.78 1980.56 2622.42 2923.5 5327.51 2200.83 1944.78 11316.5 1277.15 4012.97 299.857 2905.79 2339.21 1525.27 325.676 1324.36 2131.69 5001.83 956.998
internal_count=102561 68364 55947 34197 15362 12417 10992 51446 17591 18835 4501 17177 5646 7160 8009 15672 6027 5346 33855 3674 10826 827 8202 6579 4184 935 3653 6007 14737 2647
is_linear=0
shrinkage=0.05


Tree=11
num_leaves=31
num_cat=0
split_feature=21 19 20 22 3 4 6 22 14 17 12 13 17 6 6 14 19 5 3 14 17 13 4 14 19 8 6 8 12 19
split_gain=786.902 505.193 277.694 155.579 153.117 149.485 137.417 112.109 85.1771 100.413 81.752 90.2615 135.611 80.8583 79.1315 65.8558 65.5226 62.736 61.8687 61.6331 61.1726 58.3932 57.1689 56.3687 58.4151 55.7852 72.0337 51.9799 51.8385 93.6527
threshold=1.0000000180025095e-35 1.3123360039802876 1.0000000180025095e-35 1.9948684651316355 2.2457070156189181 6.7959142137012352 8.3815077419424053 1.1723904317329044 2.8969815774222032 3.6193095766984764 43.045000000000009 8.5375640553966683 6.3089230613339069 11.917445389180724 25.029678306142369 5.7335416464755786 3.7967275768237498 3.5521317377147503 0.82097503007095562 1.7555905803117586 4.5750961513308113 5.96657355607051 1.6307353934112261 1.8770321686179809 -0.13629566264750001 62.217070144653327 8.8688140359082599 49.822154123159557 2.3250000000000006 0.48168596533131441
decision_type=2 2 2 2 2 2 2 2 2 2 2 2 2 2 2 2 2 2 2 2 2 2 2 2 2 2 2 2 2 2
left_child=5 2 3 4 21 8 22 -3 -1 -10 11 17 13 -13 -14 18 -9 28 -7 -6 25 23 -4 -2 27 -17 -27 -25 29 -8
right_child=1 7 6 -5 19 15 10 16 9 -11 -12 12 14 -15 -16 20 -18 -19 -20 -21 -22 -23 -24 24 -26 26 -28 -29 -30 -31
leaf_value=-0.013830390954906924 0.071355872617459667 0.20677918686824537 0.18378242772127362 0.015688248640718969 0.02185174305118032 0.026422884161714719 0.064158986926013503 0.089624685308743443 0.14402823596662365 0.014715505563513039 -0.0098888223041983265 0.20492804223302261 0.048758820234112564 0.64895765792092774 0.22124021107464154 0.020791186690684003 0.2803287135652171 0.12282942880951238 -0.027846564981454183 0.20506747476718298 -0.0082043551342975158 0.040429899468433693 -0.014535566927579111 0.25078801605777407 0.35501576475775942 0.073376205124037391 0.5943672930457603 0.063044506835668243 0.01069377490189628 0.59923601979469876
leaf_weight=350.01599657908082 36.767222102731466 32.118850734084845 3.6665080226957789 96.477882128208876 5.291081763803958 54.299790505319834 4.0543942749500266 91.975128315389156 15.578909471631048 412.79770205169916 122.58932320773602 5.841818004846572 121.7720906957984 1.2435216978192327 7.0338457338511935 3.6075294725596896 4.7360621877014628 13.975847519934176 1599.5903487987816 34.65043481066823 576.18363105505705 75.787877790629864 408.88850269466639 5.949495222419503 3.7145708538591853 1.3867128901183607 1.2720712944865225 9.6937899775803071 244.87178758904338 1.0243783667683599
leaf_count=8898 656 370 82 1914 86 1262 84 1629 263 9697 2840 114 2441 25 131 73 50 279 40830 397 13744 1351 9592 93 49 25 26 153 5391 16
internal_value=-0.000263005 0.0317403 0.0216652 0.0665013 0.0950274 -0.0144043 0.00879731 0.125843 0.0044675 0.0194183 0.0258318 0.0367843 0.0698925 0.282858 0.0581777 -0.020973 0.0989637 0.0197374 -0.0260648 0.180797 -0.00651452 0.0690576 -0.0127731 0.107715 0.176772 0.148865 0.32264 0.134448 0.0139731 0.172083
internal_weight=4346.86 1332.12 1203.29 268.332 171.854 3014.73 934.962 128.83 778.393 428.377 522.407 399.818 135.891 7.08534 128.806 2236.34 96.7112 263.926 1653.89 39.9415 582.45 131.913 412.555 56.1251 19.3579 6.26631 2.65878 15.6433 249.951 5.07877
internal_count=102561 27743 25694 4699 2785 74818 20995 2049 18858 9960 11321 8481 2711 139 2572 55960 1679 5770 42092 483 13868 2302 9674 951 295 124 51 246 5491 100
is_linear=0
shrinkage=0.05


Tree=12
num_leaves=31
num_cat=0
split_feature=3 3 0 3 17 17 17 22 21 21 5 20 19 3 5 17 0 17 3 9 9 2 17 3 20 3 5 12 19 17
split_gain=5662.23 668.979 667.006 365.247 356.328 272.6 244.002 201.196 127.906 116.714 108.377 98.8519 98.6578 89.9489 87.433 76.371 68.6477 65.0968 62.2812 58.0748 58.1703 55.6781 54.0105 59.0683 52.8349 52.8043 51.2995 50.5863 49.7106 48.3879
threshold=2.0131567251458562 1.3091982279242511 1.1500000000000001 3.797591341890274 6.6624403365190608 9.5100109944203144 4.285366110004138 3.3732607316200469 1.0000000180025095e-35 1.0000000180025095e-35 1.1632108966256451 1.0000000180025095e-35 0.39034584144501855 0.86353922898731028 0.085493630770704945 15.72396191405095 0.75000000000000011 12.041438972094747 2.5249950482577344 17.154752950690778 37.889999504089332 1.0000000180025095e-35 12.502459877356914 5.2858206544539721 1.0000000180025095e-35 5.5270923614493226 0.58881509011246846 7.455000000000001 -0.56892556258831661 7.6900036533773664
decision_type=2 2 2 2 2 2 2 2 2 2 2 2 2 2 2 2 2 2 2 2 2 2 2 2 2 2 2 2 2 2
left_child=1 6 3 5 -3 11 13 24 19 12 15 -2 -6 -1 -14 -4 -7 26 -13 -8 29 27 -23 -24 -5 -17 -18 -9 -15 -21
right_child=2 4 10 7 9 16 8 21 -10 -11 -12 18 14 28 -16 25 17 -19 -20 20 -22 22 23 -25 -26 -27 -28 -29 -30 -31
leaf_value=0.032990742867736768 0.0050383654155926692 0.00084699647432203936 -0.0042192914614068121 0.024109791753668793 0.054981994288574081 0.061963562977897957 0.066043441529199068 0.0069291208180055491 0.033731257125231451 0.012769387542930683 0.031060900091691448 -0.0077759861787529035 0.017048276854677094 0.0058444668598960072 0.050422348392811192 0.024051140981148789 -0.0071845687801346024 0.052057417660428457 -0.01843281216358476 0.028538573088160313 0.063663501845828321 -0.025897830606979325 0.043956852976071326 -0.014318924335409995 -0.0074632191341769544 -0.0074125550969336117 0.042928389690923149 -0.036638577673627472 0.023472449961096167 0.048258003077127132
leaf_weight=1736.8500964045525 679.66087904572487 3053.5175090134144 1135.452543258667 164.36228856444359 456.01996558904648 102.49298149347305 492.56163185834885 69.424763351678848 2075.9067125320435 895.34904438257217 457.08549174666405 2013.8653258085251 677.94815701246262 642.55798116326332 276.19328519701958 555.65046209096909 224.55369544029236 94.111504077911377 4294.9634988903999 454.20267671346664 396.80963149666786 8449.3088210523129 49.793529897928238 343.09523928165436 683.60731354355812 175.45612415671349 66.101405173540115 1652.6837325394154 1059.1413682699203 987.33162981271744
leaf_count=4771 1998 8958 3335 472 1246 279 1325 224 5674 2506 1283 6114 1888 1822 759 1545 659 261 13296 1242 1068 26883 140 1050 2095 503 186 5326 2986 2667
internal_value=-3.76263e-05 0.025667 -0.0160389 -0.0191488 0.01205 -0.010558 0.0349685 -0.0247762 0.0427576 0.0268878 0.00923985 -0.0130792 0.035852 0.0249861 0.026709 0.00389628 0.025601 0.0159149 -0.015031 0.0507964 0.0467112 -0.0266571 -0.0250552 -0.00693323 -0.00134341 0.0165003 0.00421223 -0.0348822 0.0168162 0.0420447
internal_weight=34416.1 13204.4 21211.7 18888 5359.03 7475.75 7845.36 11412.3 4406.81 2305.51 2323.64 6988.49 1410.16 3438.55 954.141 1866.56 487.26 384.767 6308.83 2330.91 1838.34 10564.3 8842.2 392.889 847.97 731.107 290.655 1722.11 1701.7 1441.53
internal_count=102561 36912 65649 58983 15357 22793 21555 36190 11976 6399 6666 21408 3893 9579 2647 5383 1385 1106 19410 6302 4977 33623 28073 1190 2567 2048 845 5550 4808 3909
is_linear=0
shrinkage=0.05


Tree=13
num_leaves=31
num_cat=0
split_feature=14 22 6 14 14 6 20 17 22 19 17 6 10 14 20 14 22 17 14 12 14 19 5 6 14 14 19 19 22 17
split_gain=4142.48 2420.46 719.7 630.219 573.394 923.78 517.972 326.601 310.633 252.717 182.962 148.457 140.04 132.387 117.597 109.553 106.944 104.664 97.7468 92.1118 91.4732 90.8923 81.7261 80.5174 73.5126 73.3465 69.3795 68.1927 67.0826 62.2673
threshold=5.5944879606176849 2.7888712209557247 7.9709192296962774 9.7188052150139974 2.8969815774222032 4.550685970305941 1.0000000180025095e-35 5.2718346584130726 5.1114574611333579 -0.53048660076861498 4.0500981222444166 14.619267122862233 1.6000000000000012 2.2723788595294008 1.0000000180025095e-35 15.344273270093241 1.610589504006753 7.2124896104762461 4.6401833341272321 8.8150000000000031 1.5198026172574965 -1.5030904493173352 1.0000000180025095e-35 11.485661312386595 1.4808106918770623 4.0661213723421241 0.74125397324644127 0.87307426435386637 4.5228161805560392 6.8882544670164743
decision_type=2 2 2 2 2 2 2 2 2 2 2 2 2 2 2 2 2 2 2 2 2 2 2 2 2 2 2 2 2 2
left_child=1 6 -2 8 10 12 13 25 14 24 20 28 -6 21 -4 22 -11 18 -9 -10 -3 -1 26 -18 -8 -7 -13 -21 -5 -16
right_child=2 4 3 11 5 7 9 17 19 16 -12 15 -14 -15 29 -17 23 -19 -20 27 -22 -23 -24 -25 -26 -27 -28 -29 -30 -31
leaf_value=-0.0078523374794349735 -0.057564738714714271 0.025280021598269316 -0.054803678048850724 -0.036163376864370572 -0.0040107515275686024 0.0017328144335562075 0.016684447370120085 0.021195811887936133 -0.032791960907597888 -0.022852998406615716 0.031990133851984445 -0.027252110975152101 -0.057353470436538434 -0.05705276568307166 -0.035971355314140252 -0.037780591877171366 -0.002771288025711487 0.029583550016184113 -0.0015690684656118883 -0.00313253503908211 0.0029735580893544503 -0.039929126389698671 -0.032157357314361257 -0.025836299339464193 -0.0018268504494305051 -0.024559897762013665 4.121955365726359e-05 0.017924562717656009 -0.059803909829515237 -0.012122790766210013
leaf_weight=381.3894410431385 1576.9391431212425 962.59390309453011 209.81914645433426 558.69308450818062 160.80938228964806 862.62501773238182 1188.6104445159435 1679.0320108532906 128.36500638723373 1599.4627639055252 8617.7083095312119 374.38647472858429 523.84462350606918 577.93306428194046 320.70185220241547 1618.208207398653 2288.6482034921646 2459.1866537034512 655.66743478178978 569.40562936663628 879.51966547966003 524.63252452015877 750.080032736063 453.32110697031021 977.30369195342064 383.01938891410828 615.85777911543846 1183.9124370217323 648.2696932554245 1867.5310797393322
leaf_count=1062 4230 2875 566 1504 455 2449 3425 4983 365 4398 26466 1017 1434 1568 883 4363 6485 7429 1871 1608 2531 1419 2027 1271 2767 1059 1689 3430 1745 5187
internal_value=6.27403e-05 0.0110372 -0.0264466 -0.0208988 0.0216097 0.0102183 -0.0116973 0.0164581 -0.00711412 -0.00561846 0.0289327 -0.0338207 -0.0448245 -0.038354 -0.0190466 -0.0284157 -0.0125781 0.022385 0.0148026 0.0080928 0.0146298 -0.0264264 -0.0197078 -0.00658455 0.00833178 -0.00635185 -0.0102777 0.0110861 -0.0488609 -0.015618
internal_weight=35597.5 25175.3 10422.2 8845.23 17184 6724.18 7991.3 6039.53 4279.74 6507.35 10459.8 4565.5 684.654 1483.96 2398.05 3358.53 4341.43 4793.89 2334.7 1881.68 1842.11 906.022 1740.32 2741.97 2165.91 1245.64 990.244 1753.32 1206.96 2188.23
internal_count=102561 73947 28614 24384 51552 19680 22395 17791 12039 18346 31872 12345 1889 4049 6636 9096 12154 14283 6854 5403 5406 2481 4733 7756 6192 3508 2706 5038 3249 6070
is_linear=0
shrinkage=0.05


Tree=14
num_leaves=31
num_cat=0
split_feature=21 19 20 4 6 22 3 22 14 14 12 10 14 6 15 22 14 3 19 11 15 19 7 19 4 18 22 22 14 20
split_gain=710.076 394.235 231.325 144.074 125.104 119.835 110.503 83.3306 78.0002 71.3301 68.1603 64.5363 65.0091 84.3949 63.8007 63.7949 63.6849 60.1365 56.5505 55.7523 58.5825 51.0742 50.372 50.2007 49.0618 48.217 46.6736 45.2161 55.0514 44.4216
threshold=1.0000000180025095e-35 1.3123360039802876 1.0000000180025095e-35 6.7959142137012352 9.3043075183214139 1.9948684651316355 1.1064357188738991 3.3732607316200469 2.2055374888280599 1.7555905803117586 43.045000000000009 6.406200000000001 7.2665279775247251 17.692329188257776 0.13769747442945604 2.3396368666223819 5.799896032453927 0.82097503007095562 0.32263979657299308 37.275000000000013 0.60171326989409746 3.5840642158968885 4.0952275413319077 2.4092529483657472 2.7705053591278577 -0.85125688085470108 1.1013635489810674 1.4924143056373951 1.6144651146645341 1.0000000180025095e-35
decision_type=2 2 2 2 2 2 2 2 2 2 2 2 2 2 2 2 2 2 2 2 2 2 2 2 2 2 2 2 2 2
left_child=3 2 5 8 24 6 -2 23 27 -8 11 -6 18 -14 -11 22 17 -5 -13 20 -9 -18 -10 25 -4 -3 -19 28 -1 -27
right_child=1 7 4 16 10 -7 9 19 15 14 -12 12 13 -15 -16 -17 21 26 -20 -21 -22 -23 -24 -25 -26 29 -28 -29 -30 -31
leaf_value=0.038076815395770985 0.041657110274249648 0.20860847984822919 0.070277353301190962 0.025003330802352976 0.01975311657223976 0.014734314925643536 0.047185656355503924 0.087246381389570374 0.21119762685916232 0.1862278031816624 -0.0084798417558892784 0.085553640400722358 0.011848911934071563 0.10373731759905827 0.094071212616144206 0.011860926577080648 -0.010536853670951711 0.27074584225175119 0.23396788607096575 0.024721023999062459 0.38528030936899421 0.046232142262573162 0.051395524505553597 0.18472817344482012 -0.013608524650162213 0.17012864327726318 -0.027804750911494508 -0.021157657702571164 0.37169632132965941 0.066653675575145468
leaf_weight=7.5909854881465417 87.668998025357723 10.246052771806715 18.143539860844612 56.407524511218071 228.79512897878885 98.291331745684147 26.189529847353697 6.1124977655708772 6.6445062682032612 40.007133260369301 110.15667041763663 25.75254425778985 72.023508638143539 38.263554476201534 35.397589426487684 483.72123596444726 529.60496709868312 1.310212768614291 8.5490953065454942 36.929227404296398 2.2578928209841251 42.824180372059345 19.126091632992029 31.822471909224987 443.41982339695096 13.549298990517853 1550.6805934682488 260.0743032284081 1.4771543741226194 44.230989303439856
leaf_count=173 1525 144 397 1270 4960 1914 418 89 84 424 2572 465 1374 685 418 11369 12631 27 146 631 34 1034 405 308 10396 131 40998 6796 31 712
internal_value=-0.000216368 0.0294338 0.020256 -0.0140203 0.00830839 0.059524 0.0827849 0.107375 0.00444267 0.118275 0.0260816 0.036278 0.0624267 0.0437291 0.142966 0.0159447 -0.0206122 -0.0257095 0.122543 0.0511294 0.16764 -0.00628989 0.0925978 0.132893 -0.0103111 0.108645 -0.0275527 -0.0173309 0.0924218 0.0909182
internal_weight=4337.27 1377.81 1232.66 2959.46 945.104 287.555 189.263 145.148 778.634 101.594 483.541 373.384 144.589 110.287 75.4047 509.492 2180.83 1608.4 34.3016 45.2996 8.37039 572.429 25.7706 99.8488 461.563 68.0263 1551.99 269.142 9.06814 57.7803
internal_count=102561 27743 25694 74818 20995 4699 2785 2049 18858 1260 10202 7630 2670 2059 842 11858 55960 42295 611 754 123 13665 489 1295 10793 987 41025 7000 204 843
is_linear=0
shrinkage=0.05


Tree=15
num_leaves=31
num_cat=0
split_feature=14 22 6 14 14 6 22 22 14 6 6 14 6 14 13 22 22 13 13 22 14 13 22 21 5 14 12 5 7 8
split_gain=3346.81 1591.34 724.782 609.474 316.37 575.43 259.889 249.91 235.526 189.492 166.54 148.044 116.417 105.653 98.9674 87.0481 80.2092 79.9837 79.7762 79.7219 73.4433 69.7097 65.4238 64.5618 63.6213 62.0895 61.6726 61.6314 59.0358 57.8652
threshold=5.2793039826523813 3.3469593109863784 7.9709192296962774 8.7660625905354639 2.8969815774222032 4.550685970305941 5.0790310631759192 1.7242396715255797 1.6933119212847108 3.3989619808208453 13.232537331587999 13.494305430058647 2.8899227429367742 0.50477925755025754 6.9339743293438927 7.837999730204122 2.3396368666223819 8.5375640553966683 5.3488316481265281 3.1122512607424162 2.5471831637929641 5.8249463516843081 6.9545813401770706 1.0000000180025095e-35 -0.56718817419548639 3.7624924339301713 8.9750000000000032 0.62233300450136986 15.517943694249583 70.091423947983898
decision_type=2 2 2 2 2 2 2 2 2 2 2 2 2 2 2 2 2 2 2 2 2 2 2 2 2 2 2 2 2 2
left_child=1 7 16 6 22 12 21 13 -9 20 19 14 -6 -1 -12 23 -2 -13 26 -5 -10 -4 28 -7 -16 -14 -8 -15 -3 -19
right_child=2 4 3 10 5 15 18 8 9 -11 11 17 25 27 24 -17 -18 29 -20 -21 -22 -23 -24 -25 -26 -27 -28 -29 -30 -31
leaf_value=-0.01300677559483108 0.02416335307876288 -0.025898635139039061 0.03821672652924904 0.024142610122862104 0.069014952880175021 -0.01605370284489983 0.070629074131866129 -0.015241901449110574 0.017098329497856269 0.0010957100028949681 0.03473906334562727 0.042250870686358015 0.0010206997257714158 0.025045617098165381 -0.010360606966525625 -0.029506911680938743 0.056660449562380234 0.03063870107146785 -0.016772371078024626 0.054260985972721679 0.054223362523423441 0.010557718882803253 -0.033719937573185227 0.0057807121920725136 0.013421296858367982 0.046632974742880473 0.0027661824245840704 0.011446557584216491 -0.0044804235504836525 0.0064538634714349551
leaf_weight=312.60351711511612 217.62311881780624 5175.4547223448753 257.68810293078423 306.39024832844734 194.26389646530151 3078.5189336836338 38.11119282245636 2093.7673895359039 312.77974972128868 3320.518089145422 424.10540252923965 1075.7455520927906 182.99972361326218 1476.5560603439808 377.91310450434685 1154.8076453506947 1489.3539479374886 825.94813787937164 1466.0221255123615 776.64248925447464 232.04915726184845 1964.2805740237236 3021.3593663573265 380.3904575407505 1099.1435243487358 125.96654257178307 275.42227926850319 1912.0085012018681 343.05378875136375 353.04460692405701
leaf_count=907 590 16891 724 836 529 9604 111 6398 902 9753 1174 2916 541 4105 1078 3718 4021 2255 4463 2107 644 5610 10027 1111 3044 349 808 5469 1080 964
internal_value=-0.000221388 -0.0109287 0.0225844 0.0170549 -0.0219146 -0.0120833 0.00236192 0.00460204 -0.00173586 0.00558005 0.0282774 0.0237266 0.0386863 0.0148065 0.0134494 -0.0176208 0.0525174 0.0323921 -0.0118766 0.0457405 0.0329103 0.0137654 -0.0278054 -0.0136525 0.00733657 0.019617 0.0110152 0.0173723 -0.0245672 0.0233966
internal_weight=34264.5 23317.1 10947.4 9240.46 13656.8 5116.95 4001.52 9660.28 5959.11 3865.35 5238.93 4155.9 503.23 3701.17 1901.16 4613.72 1706.98 2254.74 1779.56 1083.03 544.829 2221.97 8539.87 3458.91 1477.06 308.966 313.533 3388.56 5518.51 1178.99
internal_count=102729 72028 30701 26090 43850 15852 11716 28178 17697 11299 14374 11431 1419 10481 5296 14433 4611 6135 5382 2943 1546 6334 27998 10715 4122 890 919 9574 17971 3219
is_linear=0
shrinkage=0.05


Tree=16
num_leaves=31
num_cat=0
split_feature=3 14 3 3 14 6 14 17 14 6 14 6 17 5 14 6 5 17 5 14 17 6 17 5 5 14 17 9 3 14
split_gain=5354.29 1950.45 446.664 404.167 376.454 370.84 286.473 203.891 170.555 162.836 143.747 214.87 160.695 140.538 119.521 160.724 113.698 108.85 106.417 105.089 69.0075 65.7798 65.4963 62.918 62.186 58.3406 87.8065 57.8698 57.7061 54.0026
threshold=1.8407878715906849 6.1684964415434678 1.0816191556472456 3.3467745666536897 4.0661213723421241 8.7277255984400508 11.121231893818228 2.5575172788308587 2.2723788595294008 5.7746813577746554 3.5439879963299075 5.9702938244913009 1.7999029539196056 0.67644282270170619 2.1378505058023669 2.1268599324345279 0.45662425324274147 5.0474736131097 5.228350873446213 8.0751593835710427 5.6545462717673427 12.569128016171309 6.6624403365190608 0.77148938832579461 0.38324248149620549 1.2631900244655216 2.0768495171614738 4.2312500321865132 0.79397732965117018 0.41725245920911186
decision_type=2 2 2 2 2 2 2 2 2 2 2 2 2 2 2 2 2 2 2 2 2 2 2 2 2 2 2 2 2 2
left_child=2 3 8 10 25 -3 13 -5 28 -6 12 -12 -2 22 -9 -16 19 -13 20 -11 -17 -21 -7 -19 -8 -4 -27 -28 29 -1
right_child=1 5 4 7 9 6 24 14 -10 16 11 17 -14 -15 15 18 -18 23 -20 21 -22 -23 -24 -25 -26 26 27 -29 -30 -31
leaf_value=0.0095845867098084889 -0.030945779460072344 -0.04998000190008698 0.0083778329817270226 -0.033496547300946998 -0.057997792959330156 -0.032952299735273666 -0.018991378349798374 0.032282452944623417 -0.042333837806082103 -0.0053324856848023724 -0.044181031102546682 -0.026703544772107762 0.0181831869305237 -0.018686189334669211 -0.064516817129626661 0.011122215390966018 -0.039131435957117204 0.017588307941357264 -0.0058188071569333939 -0.047396730525330055 0.026917992271387747 -0.02138532173527009 0.01137911821938945 -0.0061925966211534445 -0.040545629573294995 -0.040546453463671507 -0.062742284114042021 -0.0037928951577568776 -0.013001824305636076 -0.035030794771035566
leaf_weight=73.504650324583054 173.63949218392372 644.67691218852997 707.15478608012199 138.94336006045341 407.560003221035 87.71167916059494 1099.5339699685574 6234.5144180357456 4008.6358241438866 913.11666032671928 244.88770669698715 219.45105534791946 4016.1994027197361 611.45793136954308 52.679342061281204 803.67972475290298 944.30046039819717 1027.8648209571838 300.30720344185829 310.87856686115265 4950.987857401371 1114.0766915082932 1662.9072527885437 381.32039314508438 481.02637442946434 190.81870806217194 42.537709206342697 1956.6174674332142 745.2109686434269 877.66967275738716
leaf_count=200 478 1728 2021 386 1094 246 2987 19613 10734 2509 670 616 11967 1699 145 2396 2547 3034 894 833 15265 2994 4782 1103 1292 517 117 5475 2030 2357
internal_value=0.000198009 0.0143684 -0.0264684 0.0215895 -0.0175983 -0.0148235 -0.00907486 0.0267344 -0.0367099 -0.0281897 0.0109991 -0.000513723 0.0161471 0.00195011 0.0274124 0.0224412 -0.0244885 0.00605225 0.0231978 -0.0185746 0.024712 -0.0270602 0.00915797 0.0111533 -0.0255512 -0.00410847 -0.00814036 -0.00504721 -0.0234204 -0.031583
internal_weight=35423.9 23131.8 12292.1 18544.5 6587.06 4587.31 3942.64 12481.1 5705.02 3689.93 6063.36 1873.52 4189.84 2362.08 12342.2 6107.65 3282.37 1628.64 6054.97 2338.07 5754.67 1424.96 1750.62 1409.19 1580.56 2897.13 2189.97 1999.16 1696.39 951.174
internal_count=102729 69301 33428 56567 18107 12734 11006 38699 15321 9977 17868 5423 12445 6727 38313 18700 8883 4753 18555 6336 17661 3827 5028 4137 4279 8130 6109 5592 4587 2557
is_linear=0
shrinkage=0.05


Tree=17
num_leaves=31
num_cat=0
split_feature=21 19 20 4 3 22 16 12 19 19 22 3 0 22 19 15 3 12 4 3 22 19 3 8 18 4 13 20 7 12
split_gain=665.093 290.968 151.02 136.172 105.109 103.352 92.9606 72.3426 67.8154 66.0465 61.3027 64.6258 56.0181 59.0081 114.016 55.9753 55.0603 53.6114 51.7461 47.3144 64.7925 76.74 47.1215 46.8792 42.5286 62.4096 57.4673 44.2526 44.8413 55.6393
threshold=1.0000000180025095e-35 0.50553128236499811 1.0000000180025095e-35 5.3631147663341112 2.2247247002535411 5.9352755770961769 3.0805843601498721 1.9750000000000003 2.4553179954061437 -1.3297559761703626 1.8369817508963917 1.1473883387938038 1.7500000000000002 2.5302765296369061 2.4553179954061437 0.29151280077384367 2.8213383332204778 34.885000000000012 7.6085018219834133 4.4276404551408648 5.1426171527198772 0.87307426435386637 6.2362568901545421 82.798006852093877 -0.76357649182961718 3.4318726648959594 7.5960516059331855 1.0000000180025095e-35 35.950790977418002 4.6350000000000007
decision_type=2 2 2 2 2 2 2 2 2 2 2 2 2 2 2 2 2 2 2 2 2 2 2 2 2 2 2 2 2 2
left_child=3 2 6 -1 7 -6 9 -3 24 -2 11 -8 13 14 22 -13 -14 -16 -19 20 21 -18 -5 -11 25 26 -9 -26 -29 -30
right_child=1 4 -4 12 5 -7 10 8 -10 23 -12 15 16 -15 17 -17 19 18 -20 -21 -22 -23 -24 -25 27 -27 -28 28 29 -31
leaf_value=0.013147777827325817 0.43311267858729352 0.24202858395773619 0.00253783139556466 -0.0063782095321941804 0.11237970809072191 0.0015474365287382929 0.028205506705602068 0.00058364646886457493 0.15168657187280959 0.059247612286947131 0.0092129057497835082 0.12852624452545824 -0.0051904235857453407 -0.021983335281962932 0.088292723266375231 0.042806279033980196 -0.034330232262291281 0.09478858840995906 0.48016328031413291 0.011166509162826856 0.08124808002306326 0.50106298373951175 0.23601483692947106 0.33742043181337245 0.093003907470951636 0.057828863095405504 0.39108375021234032 0.0054188163638667561 0.39999147367343058 0.065967819598702238
leaf_weight=409.41420406848192 2.2383521422743788 4.488647546619176 755.86771033331752 159.24977274611592 136.82523668184876 24.855260383337736 80.906155429780483 1.4169456996023644 12.71946696564555 6.2351005375385267 97.998774331063032 44.709064520895481 101.1749886199832 2188.6322577036917 9.6283960938453657 33.176895368844271 0.97227048501372637 1.5216018892824643 2.0374211817979813 17.579109907150269 13.408162359148262 2.1477880850434303 2.030587885528802 2.000526949763298 19.744155805557966 38.335017539560795 2.811659749597311 146.19984604790807 1.3801527731120575 12.894723884761332
leaf_count=9790 29 55 16837 3925 1881 469 1349 27 123 74 1855 515 2366 57724 161 415 23 24 33 412 311 49 39 20 222 730 39 2985 24 223
internal_value=0.000131912 0.028118 0.0139605 -0.0135811 0.0641796 0.0953414 0.0462658 0.043186 0.0393961 0.192276 0.0403103 0.0595021 -0.0179612 -0.0197526 0.00823168 0.0920123 0.0133302 0.149585 0.315403 0.0682693 0.129003 0.334224 -0.00332638 0.126819 0.032985 0.0779373 0.260233 0.0223684 0.0136776 0.0982626
internal_weight=4332.6 1424.8 1023.13 2907.8 401.671 161.68 267.265 239.991 235.502 10.474 256.791 158.792 2498.38 2363.1 174.468 77.886 135.282 13.1874 3.55902 34.1073 16.5282 3.12006 161.28 8.23563 222.783 42.5636 4.22861 180.219 160.475 14.2749
internal_count=102729 27872 21094 74857 6778 2350 4257 4428 4373 123 4134 2279 65067 61906 4182 930 3161 218 57 795 383 72 3964 94 4250 796 66 3454 3232 247
is_linear=0
shrinkage=0.05


Tree=18
num_leaves=31
num_cat=0
split_feature=3 14 3 6 14 14 14 22 14 6 5 6 6 5 6 17 22 3 14 14 14 6 19 22 6 14 14 22 22 9
split_gain=4478.43 1324.5 542.424 384.326 336.978 280.858 247.451 215.832 134.57 278.393 115.584 110.548 104.028 100.754 95.9578 83.7338 81.0001 78.9666 61.9664 60.0914 57.2155 56.4777 50.1723 46.9389 45.4498 53.5195 44.9833 43.3801 41.8472 41.4619
threshold=2.0131567251458562 5.5944879606176849 1.3091982279242511 6.8087441760242786 5.2793039826523813 9.5426542081040893 2.6501509056392742 2.3123369342945912 2.0694921716516403 2.0663259738104318 0.67644282270170619 4.0976393059600342 7.7624728024716232 0.47413351215625293 13.43356377525985 7.4636250699317559 3.7060016011269683 0.79397732965117018 16.783547029319063 5.9444512311444822 8.7660625905354639 16.78026348510522 -0.47748732884444228 4.0744176888085244 4.0976393059600342 3.5439879963299075 0.41725245920911186 2.5302765296369061 4.5228161805560392 6.4061579033701053
decision_type=2 2 2 2 2 2 2 2 2 2 2 2 2 2 2 2 2 2 2 2 2 2 2 2 2 2 2 2 2 2
left_child=2 7 6 -3 29 10 17 -2 23 -10 -5 -8 27 20 28 24 -13 26 -16 -18 -14 -21 -19 -9 25 -11 -1 -6 -7 -4
right_child=1 3 4 5 12 14 11 8 9 15 -12 16 13 -15 18 -17 19 22 -20 21 -22 -23 -24 -25 -26 -27 -28 -29 -30 -31
leaf_value=-0.010156266746924904 -0.0033214739497507712 0.05260544129107439 0.024908662448963059 -0.014140831100786719 0.0092359654809230918 0.015653456746644836 0.057069129497863892 -0.022422794569627563 0.066706490795503628 -0.0077055597314352395 0.010623940198314308 0.029041402339553841 -0.00050079087462180671 0.037903948182293701 0.006160531541727552 -0.026609454614527212 0.025454322626030198 0.00036429093276349705 0.028077304255301819 0.055805967537009261 0.020002899453850281 0.036004448335058267 0.018943387545158553 -0.031302903071974073 -0.017359720861385784 0.041704677314022442 0.030874213703965744 0.056406141916378418 0.05299019938312402 -0.0023251542166780859
leaf_weight=71.512291878461838 1464.0718267560005 448.19615438580513 146.9662429690361 1740.4217356443405 58.087218940258026 107.29532787203789 602.30685913562775 2168.6110204458237 93.835827708244324 364.07384064793587 646.05647575855255 2864.5119185745716 514.19126850366592 558.28748267889023 1042.2508186399937 2902.3732785582542 408.26996451616287 674.82944852113724 467.02420815825462 823.57761228084564 1005.7602597177029 639.8720768392086 787.32370725274086 4742.3366050422192 4204.6925441324711 64.516512274742126 1013.8020190298557 302.93142661452293 249.69403111934662 2848.8384856879711
leaf_count=200 4392 1208 423 5295 157 295 1621 7045 264 1169 1883 7749 1465 1522 2912 9596 1113 1902 1269 2204 2736 1717 2192 16163 13442 179 2746 811 676 8383
internal_value=-0.00021663 -0.0147662 0.0223984 0.00856737 0.010245 0.0039262 0.0307745 -0.0216199 -0.0234624 -0.0188844 -0.00743663 0.0368928 0.0240424 0.0197388 0.0184564 -0.0199502 0.034327 0.0179529 0.0129424 0.0424161 0.0130666 0.047148 0.0103686 -0.0285164 -0.0157787 -0.000267744 0.0281707 0.0488165 0.0417684 -0.000989135
internal_weight=34026.5 20705.5 13321.1 4700.94 5435.06 4252.74 7886.01 16004.5 14540.4 7629.49 2386.48 5338.54 2439.26 2078.24 1866.26 7535.66 4736.23 2547.47 1509.28 1871.72 1519.95 1463.45 1462.15 6910.95 4633.28 428.59 1085.31 361.019 356.989 2995.8
internal_count=102729 65788 36941 13538 15497 12330 21444 52250 47858 24650 7178 14404 6691 5723 5152 24386 12783 7040 4181 5034 4201 3921 4094 23208 14790 1348 2946 968 971 8806
is_linear=0
shrinkage=0.05


Tree=19
num_leaves=31
num_cat=0
split_feature=3 10 3 22 3 10 22 3 5 22 0 17 6 17 21 3 22 6 10 6 6 9 5 17 4 19 22 5 5 6
split_gain=4814.32 1159.78 415.576 385.202 301.916 239.768 163.614 143.132 150.2 126.094 127.359 101.57 102.707 100.396 96.2327 89.5732 75.6243 73.306 70.4761 64.1255 62.0258 61.096 60.7869 60.1303 55.2172 55.0396 54.5024 52.6759 52.4539 48.9735
threshold=1.8407878715906849 4.0704506410256416 1.2483388922777958 1.4616416104885321 3.0634049683209374 3.0058324074074103 3.1895824197349225 5.0089170480648804 1.9200971343301667 2.9664457587243107 1.2500000000000002 11.246974039303366 4.3544154262598269 9.370234549855839 1.0000000180025095e-35 0.87726848797845125 5.1426171527198772 10.425641312828001 2.7401992424242461 10.987532834286997 13.965423820465475 51.229999582627222 1.3445034690480864 8.017939896991269 4.5304635524279666 0.53377543185413068 0.9055364243503774 -0.15061389575499903 4.2935384665874841 3.5863414533655482
decision_type=2 2 2 2 2 2 2 2 2 2 2 2 2 2 2 2 2 2 2 2 2 2 2 2 2 2 2 2 2 2
left_child=2 3 6 25 13 -4 15 8 11 -6 28 12 -3 21 17 -1 -13 -7 -17 -8 -18 24 -16 -21 -5 -2 -14 -19 -11 -9
right_child=1 7 5 4 9 14 19 29 -10 10 -12 16 26 -15 22 18 20 27 -20 23 -22 -23 -24 -25 -26 -27 -28 -29 -30 -31
leaf_value=-0.033982290814479441 -0.014159492471542757 -0.037841776909693807 -0.00011695921955585658 -0.0014055828009033608 0.0049581048681707094 -0.048642920569525384 -0.052201200710913123 -0.050391816532618788 -0.035881338215873658 0.027771944120469363 -0.0017054150017509165 -0.0059927229818679114 -0.040094147025456592 -0.015786846840035937 -0.0097594756077505496 -0.0081236874741113987 -0.05273340091502219 -0.010997667558554856 -0.026233502859473762 -0.022721898758812819 -0.020337257070840848 -0.059694595604216083 -0.035352872175428832 -0.043416506499472901 0.014621944562736886 -0.051569048164049093 0.0053575722240505868 -0.035245493676690935 0.01681902992408214 0.0089871642696826622
leaf_weight=2372.2648529112339 287.16734439134598 168.73220828175545 1948.3410117328167 628.68053069710732 778.49954572319984 462.28954073786736 1045.658066213131 35.889377564191818 620.87510287761688 10681.83979460597 409.60117244720459 542.18493258953094 69.109856605529785 356.68129974603653 1299.0836060643196 795.68278354406357 221.8659396469593 412.66472512483597 1653.8611590862274 540.53103539347649 442.28468093276024 29.674839198589325 282.44507378339767 1001.1072790920734 3700.291604578495 149.51286116242409 1445.3593123853207 489.85034215450287 1217.7069745361805 1069.793234705925
leaf_count=6352 808 462 5482 1859 2293 1259 2816 98 1721 33785 1155 1476 194 986 3548 2173 598 1119 4450 1456 1199 85 776 2675 11000 408 4200 1322 3825 3149
internal_value=0.000185837 0.0137608 -0.0250312 0.0194269 0.0205649 -0.0137255 -0.0325001 -0.0086281 -0.0135693 0.0244733 0.0257075 -0.00877517 -0.000839121 0.00971714 -0.0227246 -0.0270574 -0.0198483 -0.0324519 -0.0203509 -0.0426434 -0.0311595 0.0118042 -0.0143302 -0.0361605 0.0122943 -0.026968 0.00328347 -0.0241585 0.0266511 0.00705978
internal_weight=35159.5 22855.8 12303.8 18239.7 17803 4894.67 7409.11 4616.09 3510.41 13087.6 12309.1 2889.54 1683.2 4715.33 2946.33 4821.81 1206.34 1364.8 2449.54 2587.3 664.151 4358.65 1581.53 1541.64 4328.97 436.68 1514.47 902.515 11899.5 1105.68
internal_count=102729 69301 33428 56204 54988 13506 19922 13097 9850 41058 38765 8129 4856 13930 8024 12975 3273 3700 6623 6947 1797 12944 4324 4131 12859 1216 4394 2441 37610 3247
is_linear=0
shrinkage=0.05


Tree=20
num_leaves=31
num_cat=0
split_feature=21 20 6 4 14 3 22 16 12 13 15 22 11 4 15 4 13 12 6 14 7 3 14 22 14 16 15 6 14 10
split_gain=601.153 166.741 180.601 129.499 102.152 84.6777 94.9812 69.8247 63.5017 73.003 63.6045 63.2458 58.7449 57.1631 55.3167 51.8808 66.6439 65.8852 51.6354 56.2537 52.7542 46.4187 45.9725 67.2485 45.7295 47.0512 45.3852 43.1638 44.1512 66.2313
threshold=1.0000000180025095e-35 1.0000000180025095e-35 12.758830397132426 5.3631147663341112 3.838854518252123 1.2775758294520105 3.6556804147861266 3.5510561809129091 42.705000000000005 8.6005813756978604 -0.99471320765574978 2.1535546468919669 49.555000000000007 1.8750199314392264 -0.64474021489290623 7.3246399206566215 2.308679276123009 18.435000000000006 21.825071181960624 10.279423114831628 26.978428540125982 1.8407878715906849 1.5786696554177138 2.3123369342945912 2.2501436119603722 9.124143795447262 0.17594726784417888 6.1693857183940244 2.2958432053935742 5.6785823529411719
decision_type=2 2 2 2 2 2 2 2 2 2 2 2 2 2 2 2 2 2 2 2 2 2 2 2 2 2 2 2 2 2
left_child=3 5 13 22 -5 7 24 12 9 -4 -11 21 -2 14 -3 16 17 -13 19 20 -12 -6 -1 -24 -7 -26 -19 -15 29 -29
right_child=1 2 8 4 11 6 -8 -9 -10 10 18 15 -14 27 -16 -17 -18 26 -20 -21 -22 -23 23 -25 25 -27 -28 28 -30 -31
leaf_value=-0.018768182856074588 0.00014368631642149222 0.37155352634247346 0.034531269594877741 -0.026346914887701522 -0.0096205932718623887 0.049666887786593159 0.0063243693441868186 0.019259673662240913 0.0063452405646839448 0.30186373118703569 0.096886329882687541 -0.034287203584277101 0.23379604501221479 -0.01508391467236221 0.062391889132318523 -0.012918225361913623 0.01204724342720357 0.19083117223487256 0.13661697120768657 0.029185931161858178 0.38648949825948214 0.14594975842536556 0.10387673939076202 0.015218346294106736 0.11598136930949526 -0.027142368138720015 0.69603606735270063 0.028009608516206271 0.0019009468186738363 0.17685925871160613
leaf_weight=90.55448017641902 4.2806948833167535 1.8456761911511419 200.54050064086914 1404.3149698935449 8.0809668786823767 44.432514034211636 38.894460625946522 150.53892063349485 94.17209443077445 3.2516887634992591 30.712606456130743 1.2127135731279843 7.2398167066276073 300.4874927662313 6.6957778222858888 819.38881628587842 194.04027482122183 0.88823555037379243 28.250652033835649 57.022065661847591 1.6573582924902428 11.791404001414774 23.033470008522272 299.51352449506521 116.10819966718554 6.0410898998379698 0.88995878025889397 64.691464636474848 301.48890936747193 8.449288781732319
leaf_count=2385 68 32 3834 39378 186 533 686 2532 2033 37 526 30 94 7055 124 20637 4621 21 425 981 22 173 452 6953 1024 83 21 1416 6257 110
internal_value=0.00019378 0.0262082 0.0164605 -0.0131776 -0.0175596 0.0553628 0.0766766 0.0283389 0.0424535 0.0530323 0.0837219 -0.00565171 0.146977 0.000658858 0.129197 -0.00737887 0.0156575 0.249879 0.0776924 0.0590704 0.111714 0.0826881 0.0127116 0.0215495 0.0931029 0.108903 0.443678 -0.000967381 0.0103554 0.0452049
internal_weight=4320.51 1466.8 1099.27 2853.71 2440.61 367.536 205.476 162.059 415.607 321.435 120.894 1036.29 11.5205 683.659 8.54145 1016.42 197.031 2.99091 117.643 89.392 32.37 19.8724 413.101 322.547 166.582 122.149 1.77819 675.117 374.63 73.1408
internal_count=102729 27872 22852 74857 65067 5020 2326 2694 7858 5825 1991 25689 162 14994 156 25330 4693 72 1954 1529 548 359 9790 7405 1640 1107 42 14838 7783 1526
is_linear=0
shrinkage=0.05


Tree=21
num_leaves=31
num_cat=0
split_feature=3 14 3 14 0 14 14 3 14 21 19 9 0 5 17 14 21 5 9 10 3 5 20 2 0 5 5 14 12 5
split_gain=3935.28 1214.43 471.551 330.675 213.782 288.475 211.797 182.844 120.157 108.346 118.872 92.6653 89.1444 88.8909 86.2122 83.8671 81.1082 81.0247 73.3061 71.4552 63.0989 56.589 56.539 56.4793 55.6444 53.7672 50.6655 49.5971 47.8117 43.8897
threshold=2.0131567251458562 5.5944879606176849 1.2483388922777958 4.3618978679267961 0.65000000000000002 8.4814929731705941 2.601584478200166 5.8012714117937865 2.1151352271912027 1.0000000180025095e-35 0.37696564225362122 6.4061579033701053 0.95000000000000007 2.3089700898566483 4.1875649658533423 11.121231893818228 1.0000000180025095e-35 0.14085556078091813 49.32035614013671 2.7401992424242461 0.79397732965117018 1.3445034690480864 1.0000000180025095e-35 1.0000000180025095e-35 1.3500000000000003 0.75106835495912694 3.4954600614226621 14.922901058659134 9.4750000000000032 5.9087530851132017
decision_type=2 2 2 2 2 2 2 2 2 2 2 2 2 2 2 2 2 2 2 2 2 2 2 2 2 2 2 2 2 2
left_child=2 7 6 -4 23 13 20 8 -2 10 -5 -10 -7 -6 -13 25 19 28 26 -8 -1 -11 -18 -3 -17 -14 -16 -26 -12 -9
right_child=1 4 3 9 5 12 16 29 11 21 17 14 15 -15 18 24 22 -19 -20 -21 -22 -23 -24 -25 27 -27 -28 -29 -30 -31
leaf_value=0.026007807139449814 -0.022680258782934545 -0.03836916322710561 -0.0018295752125874376 0.047572952212376285 -0.014181942031664558 0.050952708255503826 0.026457585864539238 -0.029426386111802729 0.038513882917337969 0.0066932737901386798 0.041351765545406399 0.0037445841392626219 -0.0078055976799765369 0.019333821042894488 -0.017163176184221897 0.042930938665357 0.045102983849014129 0.040176785985795146 0.063372142330790512 0.046168195925170498 0.0096048765394278098 0.039389833684143526 0.025232340611607236 0.041221834157097209 0.0036926946314896174 0.02332718187862029 0.00090399674184460605 0.024959058166855341 0.0075989880296061076 -0.0075827032901996799
leaf_weight=1072.1080791950226 4871.6722012758255 23.288389503955841 2857.3104368746281 606.47196543216705 1640.644787967205 172.22575798630714 603.48837479948997 4911.8739205896854 89.422285914421082 1132.7696557641029 121.8708533346653 691.18882036209106 554.94129526615143 224.95935016870499 4458.191453576088 236.40499594807625 434.63640728592873 370.81021955609322 29.570409029722214 1931.2404767274857 1293.87417948246 149.83740118145943 2029.8732405900955 519.69207137823105 463.75653409957886 184.88657492399216 425.02985316514969 670.62240996956825 754.29691305756569 241.25419092178345
leaf_count=2892 16239 68 8402 1647 5027 470 1627 16964 265 3134 331 2072 1625 652 14481 642 1166 1006 87 5182 3593 409 5462 1441 1282 515 1334 1816 2090 808
internal_value=-0.000209643 -0.0140188 0.0208883 0.0104745 0.00830605 0.00444458 0.0293625 -0.0206821 -0.0169158 0.0216849 0.029416 -0.0119834 0.016364 -0.0101405 -0.0127892 0.0135415 0.0351955 0.0205853 -0.0151153 0.0414753 0.0170376 0.010513 0.0287367 0.0378082 0.0208638 -2.5365e-05 -0.0155906 0.0162649 0.0122938 -0.0284037
internal_weight=33768.2 20409.6 13358.6 5993.37 4691.42 4148.44 7365.22 15718.2 10565.1 3136.06 1853.45 5693.4 2282.84 1865.6 5603.98 2110.61 4999.24 1246.98 4912.79 2534.73 2365.98 1282.61 2464.51 542.98 1370.78 739.828 4883.22 1134.38 876.168 5153.13
internal_count=102729 65788 36941 17019 13538 12029 19922 52250 34478 8617 5074 18239 6350 5679 17974 5880 13437 3427 15902 6809 6485 3543 6628 1509 3740 2140 15815 3098 2421 17772
is_linear=0
shrinkage=0.05


Tree=22
num_leaves=31
num_cat=0
split_feature=14 22 6 14 14 6 20 22 10 19 20 22 14 20 6 14 22 22 20 12 6 22 7 22 6 14 10 5 21 5
split_gain=2896.06 1738.08 646.768 573.41 350.078 524.974 343.938 291.016 193.093 183.482 148.807 137.016 118.485 109.973 103.242 130.39 97.9585 89.2546 77.9065 76.9944 72.9767 69.9536 68.5859 67.7677 60.8465 60.2961 58.039 57.6052 53.6196 52.3737
threshold=5.0460395375545781 2.7888712209557247 7.4227160139227282 8.7660625905354639 2.5750824010388942 4.0976393059600342 1.0000000180025095e-35 5.0790310631759192 1.6000000000000012 -0.53048660076861498 1.0000000180025095e-35 4.6390628835089966 2.2723788595294008 1.0000000180025095e-35 12.469195275385166 13.494305430058647 4.3197400893482962 1.1723904317329044 1.0000000180025095e-35 8.9750000000000032 10.201170655867957 3.1381199211996806 13.392951593792585 2.1253232649912088 15.212047793101759 1.4808106918770623 1.9143083333333337 -0.56718817419548639 1.0000000180025095e-35 0.32321516846098303
decision_type=2 2 2 2 2 2 2 2 2 2 2 2 2 2 2 2 2 2 2 2 2 2 2 2 2 2 2 2 2 2
left_child=1 6 -2 7 16 8 12 13 -6 25 -5 18 23 -4 21 27 22 -11 -7 -9 -19 -12 -3 -1 -20 -8 -13 -16 -28 -21
right_child=2 4 3 10 5 11 9 19 -10 17 14 26 -14 -15 15 -17 -18 20 24 29 -22 -23 -24 -25 -26 -27 28 -29 -30 -31
leaf_value=-0.026326306642923347 -0.049587471650263608 0.021181868278536485 -0.047725190067762498 -0.052608949338301472 0.0061378690406755278 -0.021281032074594752 0.015518525757665309 -0.022134598957323403 -0.05204167947965449 -0.024882309632391464 -0.016070501211121479 -0.032894205563131197 -0.050249555122545059 -0.01056650030451438 0.0031088185078557416 -0.029033984783236585 0.0303770964252498 -0.0026612464587951763 0.012641405442459331 0.018935223900795148 -0.020956446581787306 -0.049642718198532006 -0.010357283671988606 0.010350253066632214 -0.013319021569694181 -0.001375193511145267 0.024482485509667112 -0.016441693090480353 0.0014799712873506945 -0.00057334672147951965
leaf_weight=767.58867394924164 1606.7153393924236 2808.6248317360878 217.06280070543289 496.55025786161423 217.70622873306274 226.84966289997101 1180.0120588243008 157.16523832082748 413.47524657845497 817.78997355699539 213.07870462536812 47.499690890312195 516.14939296245575 2408.1702504754066 514.51278027892113 2200.1548380851746 5823.3761161863804 2636.5377739667892 1885.1677291989326 1443.025726556778 687.11908352375031 570.87176358699799 183.64636844396591 150.66804215312004 256.41035741567612 956.1518442928791 3339.1375032961369 1407.4662915468216 274.14539721608162 451.73383817076683
leaf_count=2073 4381 8789 582 1334 636 634 3438 454 1149 2216 572 133 1389 6699 1424 5894 19197 7428 5622 4314 1917 1541 554 425 749 2707 10578 3812 783 1305
internal_value=0.000170202 0.0103991 -0.0201258 -0.0154296 0.0200625 0.0114108 -0.00899272 -0.0026125 -0.0319745 -0.00394535 -0.0265255 0.0159527 -0.0310823 -0.0136389 -0.0238856 -0.0207225 0.026599 -0.0100845 0.00658177 0.0114947 -0.00644352 -0.0405177 0.0192462 -0.0203084 0.00953317 0.00795686 0.0220154 -0.011208 0.0227372 0.0142841
internal_weight=34874.6 23188.1 11686.5 10079.8 15476 6660.39 7712.02 4677.16 631.181 6277.61 5402.63 6029.21 1434.41 2625.23 4906.08 4122.13 8815.65 4141.45 2368.43 2051.92 3323.66 783.95 2992.27 918.257 2141.58 2136.16 3660.78 1921.98 3613.28 1894.76
internal_count=102729 70417 32312 27931 48824 20284 21593 13354 1785 17706 14577 18499 3887 7281 13243 11130 28540 11561 7005 6073 9345 2113 9343 2498 6371 6145 11494 5236 11361 5619
is_linear=0
shrinkage=0.05


Tree=23
num_leaves=31
num_cat=0
split_feature=21 19 4 20 3 22 10 10 16 10 18 12 12 8 22 19 22 12 19 19 4 17 19 13 4 3 12 16 4 12
split_gain=545.775 225.035 123.501 115.986 74.4362 73.5054 65.1059 59.8264 57.3362 54.445 75.6412 73.6553 73.5692 110.024 53.2382 87.423 49.9804 46.9436 49.1677 44.9366 52.0463 43.7164 42.4121 106.561 40.7767 40.5632 39.1729 43.5546 38.922 38.1709
threshold=1.0000000180025095e-35 0.50553128236499811 6.7959142137012352 1.0000000180025095e-35 2.2247247002535411 5.9352755770961769 7.1944905797101484 3.142300000000001 3.5510561809129091 8.9968428571428607 0.98458666652069515 38.105000000000011 3.1850000000000005 61.319642129080641 2.7643164107775573 2.322169553882683 1.6970860122572591 1.9750000000000003 2.4553179954061437 3.4783004645493616 4.4708835815753476 4.4801779609488337 2.993866710635924 8.5702975444263387 2.7705053591278577 1.1064357188738991 34.275000000000013 3.3837848631377252 7.4634643426184608 28.185000000000006
decision_type=2 2 2 2 2 2 2 2 2 2 2 2 2 2 2 2 2 2 2 2 2 2 2 2 2 2 2 2 2 2
left_child=2 3 19 8 17 7 14 -6 -2 24 12 -12 13 -11 15 -4 25 -3 -19 20 29 28 -8 -24 -5 -10 -17 -28 -9 -1
right_child=1 4 6 9 5 -7 22 21 16 10 11 -13 -14 -15 -16 26 -18 18 -20 -21 -22 -23 23 -25 -26 -27 27 -29 -30 -31
leaf_value=0.0014877411449210171 0.11974621003089964 0.17787955910824846 -0.005722173185979818 0.066996733882355025 0.045406936642429174 0.00032409038616153468 0.0092531819711161832 0.11159811625547617 0.023726764438588743 0.064355246588252757 0.052637968912645931 0.53346103788301924 0.017468850873501734 0.55234612015933093 -0.024527375550489578 0.060884911464985619 0.0073032930619850419 0.02843980832636302 0.12166334106107511 0.048487265563782522 -0.0076213660826015689 0.087233757193093966 0.51322175676114967 -0.034367772237915088 -0.0051571395426882379 0.074251280473243378 0.34578602985326296 0.026919479397799834 0.20955068136896737 0.04432542197697497
leaf_weight=108.65095920860767 20.376524575054646 5.7973347529768935 178.62763680890203 20.181671977043152 48.731059215962887 25.684271529316902 134.25912075862288 24.448225293308496 74.174109313637018 4.0401896499097338 1.7074148207902902 1.4928763471543787 82.252438191324472 1.6174858398735521 1695.5674430057406 7.8507014177739602 112.73101613670588 238.03294576331973 15.037402793765066 53.27105700597167 515.35678429156542 67.940516617149115 1.4609694890677922 2.2671067863702774 657.77626379206777 85.535803906619549 3.2730239704251289 1.5917195118963716 17.330512262880802 99.738433320075274
leaf_count=2517 212 55 4591 402 564 469 3249 212 1175 75 26 18 1525 25 47756 160 1978 4250 123 1165 12967 962 34 52 14766 892 43 25 143 2298
internal_value=0.000265525 0.0245526 -0.0127789 0.0120642 0.0544875 0.0787889 -0.0192815 0.0915077 0.0388446 0.00186772 0.0381575 0.276933 0.029465 0.203868 -0.021706 0.00329495 0.0327938 0.0372018 0.0339791 0.00416701 0.000904834 0.111983 0.0138724 0.180223 -0.00300924 0.0507862 0.129968 0.241455 0.15223 0.0219905
internal_weight=4306.8 1504.89 2801.91 1061.89 443.002 184.135 2024.9 158.45 292.817 769.068 91.1104 3.20029 87.9101 5.65768 1886.91 191.343 272.441 258.868 253.07 777.017 723.746 109.719 137.987 3.72808 677.958 159.71 12.7154 4.86474 41.7787 208.389
internal_count=102729 27872 74857 21094 6778 2350 55910 1881 4257 16837 1669 44 1625 100 52575 4819 4045 4428 4373 18947 17782 1317 3335 86 15168 2067 228 68 355 4815
is_linear=0
shrinkage=0.05


Tree=24
num_leaves=31
num_cat=0
split_feature=10 22 7 9 9 20 20 13 5 22 20 22 6 6 5 7 13 10 6 10 22 5 21 16 4 8 11 12 11 7
split_gain=1898.08 629.295 333.816 290.549 238.366 235.293 173.649 171.497 159.735 137.533 112.921 95.2162 94.5539 75.616 73.8918 71.3646 70.9966 63.9627 56.507 56.1361 55.5615 52.9237 52.911 51.0675 51.0617 48.976 48.8109 41.4269 41.2606 41.1455
threshold=4.0704506410256416 2.7888712209557247 21.712696359235085 4.2312500321865132 49.32035614013671 1.0000000180025095e-35 1.0000000180025095e-35 1.9849433241279308 -0.7643128047702018 7.837999730204122 1.0000000180025095e-35 4.2662053525407799 7.5561333112465823 16.084360025665507 0.89268321492702707 29.55460073775102 2.745906043549164 4.8161916666666675 17.22450696045048 2.6588055555555559 6.2332728503281212 1.0462244695954239 1.0000000180025095e-35 3.6891733491393444 4.0040541954325528 49.513538421044011 33.065000000000005 21.545000000000005 68.895000000000024 14.893993698334359
decision_type=2 2 2 2 2 2 2 2 2 2 2 2 2 2 2 2 2 2 2 2 2 2 2 2 2 2 2 2 2 2
left_child=1 10 3 -3 6 22 7 -5 12 16 21 25 -7 -4 26 20 -8 -13 -19 -16 -15 -1 -2 -24 -18 -10 -12 -14 -28 -26
right_child=5 2 13 4 -6 8 9 -9 11 -11 14 17 27 15 19 -17 24 18 -20 -21 -22 -23 23 -25 29 -27 28 -29 -30 -31
leaf_value=0.029540992872655287 0.051994246122489429 0.04268393592804668 0.039599565214901003 -0.018580135991681616 0.039701631396687309 0.030340962335195155 -0.025322978423796785 0.021785626632418953 0.021632349683794422 -0.026752600000323271 0.023673927722686429 0.012886287797738991 -0.011886420139621236 0.010281162779587551 -0.0099577234541776329 0.017703146846467243 0.0032947599659526867 0.039111492917798835 0.020803392958728979 0.0047542112776674372 -0.014304565890776983 0.0091039163754271478 -0.034133485640018911 0.033278456950574464 -0.016024728610052483 0.01073806181993691 -0.0013959351705967217 0.0050667625148679563 0.012302520022459372 -0.0067135949233924734
leaf_weight=598.29217520356178 477.38781279325485 213.76770982146263 169.96737283468246 496.12767085433006 189.56680682301521 245.58114346861839 1517.1184475421906 560.28566855192184 1593.5837500989437 3514.8032940924168 420.98624885082245 600.27457809448242 705.06553667783737 391.87742665410042 1537.1914146244526 618.08710521459579 424.71122476458549 1054.2108221054077 702.18298241496086 1121.4259287714958 555.61386266350746 673.22897845506668 29.277001619338989 695.16136658191681 7099.9600162804127 2925.5176601111889 1160.2369439601898 737.02614456415176 1044.6554544866085 1424.5218651592731
leaf_count=1626 1302 635 471 1588 568 694 5227 1580 4428 12312 1190 1775 2076 1135 4602 1697 1289 2947 1926 3317 1712 1904 82 1882 23672 8164 3310 2178 2971 4469
internal_value=-0.000201371 -0.00783605 -0.0128662 -0.0152031 -0.0160157 0.0183531 -0.0167181 0.00282849 0.0154455 -0.0181951 0.00534264 0.0188288 0.00166193 0.0079248 0.00212381 0.00448603 -0.0153213 0.0269766 0.0317922 -0.00375211 -0.00413604 0.0187202 0.0390705 0.0305541 -0.0136257 0.0145797 0.00807298 -0.00322196 0.00509425 -0.0144687
internal_weight=33497.7 23732.4 17176.4 15440.9 15227.1 9765.27 15037.5 1056.41 8563.44 13981.1 6556.02 6875.77 1687.67 1735.55 5284.5 1565.58 10466.3 2356.67 1756.39 2658.62 947.491 1271.52 1201.83 724.438 8949.19 4519.1 2625.88 1442.09 2204.89 8524.48
internal_count=102729 75275 56355 51340 50705 27454 50137 3168 24188 46969 18920 19240 4948 5015 15390 4544 34657 6648 4873 7919 2847 3530 3266 1964 29430 12592 7471 4254 6281 28141
is_linear=0
shrinkage=0.05


Tree=25
num_leaves=31
num_cat=0
split_feature=3 14 22 20 14 3 14 0 3 20 22 5 14 5 14 20 17 0 14 0 5 14 9 14 9 14 22 17 22 14
split_gain=3832.05 1585.14 491.678 332.7 250.334 236.793 214.553 289.508 163.086 120.111 107.535 102.843 90.2327 89.1172 89.0283 78.3065 74.9777 72.4517 64.9814 118.298 79.8741 61.8224 54.2591 53.9212 51.6464 58.8259 48.4749 46.6257 46.3176 49.6074
threshold=1.623083485221877 5.2793039826523813 1.8110929390390929 1.0000000180025095e-35 3.2853924182750154 2.7961401967712587 9.5426542081040893 0.65000000000000002 0.86353922898731028 1.0000000180025095e-35 3.1895824197349225 0.67644282270170619 1.6933119212847108 0.53833716163279433 2.0694921716516403 1.0000000180025095e-35 7.4636250699317559 1.1500000000000001 3.5085189470378424 0.35000000000000003 1.6343674943608641 12.593230713790939 17.154752950690778 0.41725245920911186 36.170000400543231 7.4830542182653366 7.3643223874933774 3.7335437722263332 1.1013635489810674 1.6144651146645341
decision_type=2 2 2 2 2 2 2 2 2 2 2 2 2 2 2 2 2 2 2 2 2 2 2 2 2 2 2 2 2 2
left_child=4 2 12 26 8 18 7 -5 23 -6 -11 -9 -2 17 -7 -14 27 -8 -4 -20 -21 -19 -12 -1 25 -24 -3 -16 -10 -30
right_child=1 3 5 6 9 14 13 11 28 10 22 -13 15 -15 16 -17 -18 21 19 20 -22 -23 24 -25 -26 -27 -28 -29 29 -31
leaf_value=0.010755167551119162 0.0050346841166204817 -0.053366202669634814 0.014508832114853917 -0.03411825626155595 -0.046685215734044057 0.028772640540705066 -0.038058769424607092 0.012957433155663287 -0.020661994530973865 -0.020737472383325812 -0.050572492528923367 -0.008626739052749936 -0.049492205516653565 -0.034118904397189752 -0.0076296664976052185 -0.012659441061713506 0.026594176594734693 0.005448150793046079 -0.039005987209497758 0.013273540499270679 -0.027287799894294886 -0.015562652076400695 -0.014950635959031282 -0.030137458157172767 -0.046555938862544451 -0.034006596369104185 -0.021843785504805181 0.016949081009400981 0.005683487677413503 -0.010302621467267977
leaf_weight=85.207849323749542 497.93367910385132 451.28510165214539 2638.87171459198 484.24271830916405 1028.1853421628475 6366.3734851181507 232.83682033419609 2219.6082192361355 532.94948002696037 2611.0915765464306 457.92836013436317 734.50251170992851 197.10493865609169 619.48613166809082 205.00934609770775 538.64198097586632 2707.7288151681423 542.10782459378242 165.00651425123215 779.48156550526619 143.75724658370018 988.51484614610672 588.44017899036407 1495.1752368807793 472.12513557076454 1299.0836248099804 167.12609073519707 3280.317483663559 791.94878336787224 1253.2599432170391
leaf_count=231 1439 1223 7969 1357 2798 21338 636 6553 1455 7016 1251 2073 530 1662 592 1518 8880 1489 459 2306 409 2653 1601 3996 1288 3498 460 10386 2221 3442
internal_value=0.00015444 0.0112341 0.0190311 -0.00997865 -0.0248535 0.0213364 -0.00627447 0.00171668 -0.0152859 -0.0310155 -0.0280476 0.0075908 -0.0114026 -0.0178049 0.0246207 -0.0225269 0.0203525 -0.0120739 0.0102692 -1.15607e-05 0.00695775 -0.00812116 -0.034822 -0.0279327 -0.0317654 -0.0280659 -0.0448472 0.0155033 -0.00753353 -0.00411246
internal_weight=34575.3 23959.9 17520.2 6439.71 10615.4 16286.5 5821.3 3438.35 4158.54 6456.85 5428.67 2954.11 1233.68 2382.95 12559.4 735.747 6193.06 1763.46 3727.12 1088.25 923.239 1530.62 2817.58 1580.38 2359.65 1887.52 618.411 3485.33 2578.16 2045.21
internal_count=102729 73932 55826 18106 28797 52339 16423 9983 11345 17452 14654 8626 3487 6440 41196 2048 19858 4778 11143 3174 2715 4142 7638 4227 6387 5099 1683 10978 7118 5663
is_linear=0
shrinkage=0.05


Tree=26
num_leaves=31
num_cat=0
split_feature=21 19 4 20 14 17 10 5 22 5 19 22 10 15 18 16 4 12 12 16 12 19 4 16 12 12 5 16 12 4
split_gain=495.556 192.32 118.821 102.458 62.161 91.3782 61.8004 57.1802 52.7142 98.5121 51.2379 48.6027 41.6256 50.7289 50.4533 58.6389 45.7351 55.65 41.2778 48.4031 40.8217 38.994 38.4966 37.864 44.2459 54.5745 45.7518 42.6857 35.6975 34.6791
threshold=1.0000000180025095e-35 0.48168596533131441 6.8831860355267347 1.0000000180025095e-35 1.7321946213227279 2.447346147286829 7.1944905797101484 0.52194570848847388 2.7643164107775573 -3.7549330813092037 1.8542945286764463 3.6804873958501192 8.9968428571428607 -0.99471320765574978 0.98458666652069515 8.7367041840729893 19.996324324470475 3.1850000000000005 26.235000000000003 9.5005263012109094 1.9750000000000003 1.4047498660470072 5.6581578253072076 3.6891733491393444 46.535000000000004 24.965000000000003 -0.24648346113145145 6.3631753079732141 34.685000000000009 2.7705053591278577
decision_type=2 2 2 2 2 2 2 2 2 2 2 2 2 2 2 2 2 2 2 2 2 2 2 2 2 2 2 2 2 2
left_child=2 3 4 11 -1 -6 8 20 9 -4 -11 23 29 -14 15 16 22 -18 -7 28 -3 -22 -15 -2 25 -25 27 -27 -20 -5
right_child=1 7 6 12 5 18 -8 -9 -10 10 -12 -13 13 14 -16 -17 17 -19 19 -21 21 -23 -24 24 -26 26 -28 -29 -30 -31
leaf_value=-0.020338343093371271 0.10814174745657992 0.15761984765839568 0.48465163508395054 0.059955558438127866 0.13293321031539129 -0.0044114525346735231 0.013101522713205483 0.067300942749138656 -0.024393409690518657 -0.0082779191192094287 0.075860519041395069 -0.011710971610072568 0.27693703349642501 0.14916739987944852 0.20057770436791614 -0.0062696460514820697 0.21788653169969252 0.012227128218827607 0.048104199242820465 0.31034005124210273 0.01824246105906378 0.06501934876710122 0.50508954869809386 0.02564863465763241 -0.0042834845358004688 0.020956660348189399 0.061264351461333411 0.20284999710619675 0.0094037269872779342 -0.0051306337716246209
leaf_weight=198.74040188267827 21.231374349445105 6.3789620548486701 1.0574715435504902 21.137923568487167 15.207449413836001 293.97270508855581 139.11888678744435 229.74364394322038 1625.5618535764515 169.2935575209558 20.259700559079647 45.819520134478807 2.0771508514881125 2.9871282465755966 4.0045516826212397 63.084552139043808 4.144535098224881 15.940991748124359 84.284404672682285 1.4501515105366696 185.26905346661806 58.658833682537079 1.0188390687108038 105.60492409020662 48.231938548386097 4.3962376788258579 65.476415626704693 12.111234962940214 203.34065174311399 643.6991932913661
leaf_count=5565 193 54 15 397 184 6983 3317 2860 47238 4371 387 866 25 50 43 1144 57 305 1987 31 3429 707 19 1460 679 51 856 132 4779 14545
internal_value=0.00032741 0.0230294 -0.0123835 0.0111479 0.00388874 0.011937 -0.0190162 0.0492889 -0.0214765 0.00339969 0.000714907 0.0357303 0.00132679 0.0326095 0.0270435 0.019072 0.0854301 0.0546638 0.00878107 0.0221971 0.0327565 0.0294912 0.239689 0.0441867 0.0384287 0.0494107 0.0800189 0.154409 0.0207443 -0.00306127
internal_weight=4293.3 1541.02 2752.29 1060.97 796.996 598.255 1955.29 480.05 1816.17 190.611 189.553 302.872 758.095 93.2577 91.1806 87.176 24.0915 20.0855 583.048 289.075 250.307 243.928 4.00597 257.052 235.821 187.589 81.9839 16.5075 287.625 664.837
internal_count=102729 27872 74857 20822 19529 13964 55328 7050 52011 4773 4758 4237 16585 1643 1618 1575 431 362 13780 6797 4190 4136 69 3371 3178 2499 1039 183 6766 14942
is_linear=0
shrinkage=0.05


Tree=27
num_leaves=31
num_cat=0
split_feature=3 14 3 6 14 14 14 22 6 14 6 6 5 5 6 14 6 22 22 14 3 5 14 9 14 6 9 22 17 20
split_gain=3208.33 972.735 402.035 307.394 245.084 198.719 187.571 170.343 108.336 94.1254 92.3068 88.0453 87.7874 85.8826 79.2254 78.3901 150.254 66.6959 63.9411 61.2075 58.6232 56.9273 55.8266 55.1532 43.4674 46.5885 42.2886 41.8629 41.8014 38.4567
threshold=2.0131567251458562 5.5944879606176849 1.3091982279242511 6.8087441760242786 4.3618978679267961 9.0700466212359192 2.601584478200166 4.4349729923776424 7.7624728024716232 2.3941578267163313 4.0976393059600342 3.7098186664640722 0.42589013780567681 1.6061395071979925 13.43356377525985 2.1151352271912027 2.1268599324345279 2.5827878394642965 3.9441744760880186 8.0751593835710427 0.79397732965117018 2.6853575739266646 16.783547029319063 6.4061579033701053 6.4150785009962741 16.78026348510522 45.8996148300171 4.5228161805560392 7.2924556916159764 1.0000000180025095e-35
decision_type=2 2 2 2 2 2 2 2 2 2 2 2 2 2 2 2 2 2 2 2 2 2 2 2 2 2 2 2 2 2
left_child=2 7 6 -3 -4 13 20 9 17 -2 -8 -11 19 26 27 -9 -17 -6 29 -10 -1 -13 -16 -18 -20 -26 -5 -7 -25 -12
right_child=1 3 4 5 8 14 10 15 12 11 18 21 -14 -15 22 16 23 -19 24 -21 -22 -23 -24 28 25 -27 -28 -29 -30 -31
